-2.660698645167324156e-04,-1.465995010225147057e-04,-5.236151927768560496e-05,-6.114113474034296367e-05,-7.823830533847570034e-06,1.392505881629098926e-04,1.312279900185244180e-04,1.079692350280929170e-04,3.535448374202409681e-04,-1.243296656170492795e-04,3.457964097588290750e-04,2.092003749291026192e-04,-3.002297036252217282e-04,2.066858770946414811e-04,-6.386646034114175352e-05,9.841399886716544778e-05,1.187021741379700243e-04,1.173997644186871409e-04,-5.893870249796967779e-05,-4.215510732998090288e-04,1.531636279526898980e-04,2.789221841175806350e-04,-1.901155695281236144e-04,2.472331833611012821e-04,-3.680944456008896997e-04,3.206409285445635787e-04,-5.758048667489316924e-05,-5.170739595315123927e-05,3.257499741153155792e-05,8.369037928390486789e-05,8.072420694835946868e-06,1.472870815152001764e-04,4.267170590832913742e-05,4.739552411478408026e-05,4.646740817247223027e-04,4.361009660567455879e-04,1.168327916915839083e-04,1.414557117340581441e-05,-7.079038100171687522e-05,6.106511892163004294e-05,9.951354439135696593e-05,8.422802163878953606e-05,-9.783507411528331529e-05,1.908864128119201742e-04,-6.930533112481884978e-05,-8.475645741974823725e-05,1.912656292406060782e-04,6.944085710396458904e-04,1.674612732660734672e-04,-1.711479061733561327e-05,4.793015442376905017e-05,-3.791281807980370025e-05,4.718665196318649332e-05,6.828015647123207934e-05,2.173058010545832284e-04,-1.087648170072152086e-04,-1.137470920661587810e-04,-7.328358095087534729e-05,-5.044538889442811038e-05,-1.691287846732585296e-05,4.360348805623913068e-04,6.519451716089531964e-04,1.122441538685867678e-04,-2.234105384542581815e-04,-4.535605023728148848e-06,-9.438353483983929451e-05,0.000000000000000000e+00,2.497415938764879100e-04,1.174221627769730681e-04,3.290157556538196755e-04,2.805189277027423170e-04,1.913104929608165725e-04,-3.454180963964014866e-05,-7.458892898545222880e-05,-4.102939304283972476e-04,2.707045005342057463e-04,3.738639836800103800e-04,5.071395391079317692e-05,-2.503705538178510929e-04,-2.214847165985742172e-04,-1.862671213267992718e-04,-9.779027420304156311e-05,-2.510992468689257628e-04,0.000000000000000000e+00,3.649246664731250925e-05,2.028361183980629135e-04,1.354557308883894530e-04,1.874630958916524378e-04,4.244088240632126123e-04,9.956221340974208737e-05,1.509278416467302287e-04,-8.282514089066467177e-06,-2.277707072944315156e-04,1.287770297991190139e-04,3.643578424561488361e-04,2.097015781644123321e-04,-1.351158004534397199e-04,-1.997591143482870338e-04,-4.354854601187506044e-05,4.777741767836079550e-06,-7.328167642154501063e-06,7.761200415249722249e-05,0.000000000000000000e+00,2.359333139095319868e-04,-7.069703858927700113e-05,2.384798044182548718e-04,3.082753404380764368e-04,2.314039200173488510e-04,-8.341938254619516276e-06,1.894160912554568353e-04,6.548767750225543353e-05,-8.311980716595685035e-05,2.307007958098309535e-04,5.137505791418478605e-04,1.599996981606350687e-04,1.330016513182924812e-04,-9.707874709550437899e-05,1.238661766378411569e-05,3.592034437494472045e-05,1.857334167239374945e-04,-2.398305507661925942e-04,4.230815607192375854e-05,2.514231163913216446e-05,2.681284699941140670e-04,2.032963264243580024e-04,1.607402519377088229e-04,1.168394460561420661e-04,6.996869244708430944e-05,4.346802847748402706e-04,1.125626898257901017e-04,5.847425864213849417e-04,3.821099458031719976e-04,-1.335346192785958372e-04,-2.767695080829401470e-04,-2.385466717096873729e-04,-5.583188847681323785e-04,-1.831301109626385086e-04,1.519276277575641631e-04,2.955327021912168908e-04,0.000000000000000000e+00,-4.624000737421045902e-05,1.752700842515867260e-05,1.506887435048919627e-04,3.081044492263735647e-04,-1.266712929298800398e-05,1.924974931046368452e-04,4.094068696211126588e-04,5.580864471158531945e-04,2.834380299930149678e-04,-1.120071777924223455e-04,3.262062749280494564e-04,-8.537084684031426675e-05,-5.148114546514663244e-04,-2.852925861291849877e-04,-4.883025386226925914e-04,-4.968901889773590921e-04,-2.203563635132196365e-04,1.124809826940071763e-06,4.177532819297370529e-05,0.000000000000000000e+00,-5.398026328362783818e-05,5.811571474892156301e-05,1.706925247105374010e-04,1.095843213086902389e-04,-6.895435308019835655e-05,3.291087885383174811e-04,2.123944350614905495e-04,-1.760278195510321143e-04,1.406230558386543505e-04,-2.235766026559649153e-04,1.754048995992846217e-04,-2.157525241228823397e-05,-2.186126177275156510e-04,7.348065221873441852e-05,-2.080745746084510038e-04,-4.023848192940639493e-04,-1.462568349022417061e-04,2.529201716630503764e-04,1.993343977708584734e-04,-5.731306494269585225e-05,1.099875805685703533e-04,2.142041641305210344e-04,2.698120347470606682e-04,-1.178842705919106658e-04,-2.410628088541629866e-04,-5.903469128048157853e-05,-1.565117439543867216e-04,-1.889016556789592128e-05,1.350340518318069079e-04,1.660862482309773537e-05,-1.167206989623586751e-04,1.335724802772188886e-04,2.395696174799805003e-04,-1.260257587446646861e-04,-2.827546653179432927e-05,2.355078444235229201e-04,1.827097306424798424e-04,5.120721601021664682e-04,-5.716621961632337173e-05,-4.245358509155001438e-04,-1.680226117789378236e-04,2.034530196052667967e-04,-9.579711201575890315e-06,-1.734296756301311967e-05,5.658339579334618712e-05,2.889391326228459120e-04,-3.187340775878906357e-04,3.247998050878323179e-06,1.110720222254167345e-04,1.247659365953020629e-04,3.122250866024628446e-04,-2.356085050221096736e-05,7.342084633772747847e-05,-3.354207015348555899e-06,-4.882128129677206158e-05,-2.669264385398593866e-04,-1.499992250769061671e-04,-1.551983197673519207e-04,-3.932589911143990016e-04,1.966835466401180049e-04,-3.996174781933119804e-05,-2.104036843120516158e-04,1.209906319396914854e-04,-1.157276005956609308e-04,-3.332560163787450219e-04,8.749726158053030693e-06,-6.901126242125343586e-05,-1.004474545350630803e-04,-1.180555649419087858e-04,-2.601314444583085160e-04,7.741784795233369587e-05,-5.314980637174175447e-05,-6.142106458424873793e-06,3.771731979843156979e-04,-1.008300626224312971e-04,-2.031258544808114901e-05,1.224739541086626220e-05,-9.758081963509046168e-06,-2.242685248872164968e-04,-2.828237618492944515e-04,-1.982802718839596606e-04,1.161033335052751231e-04,1.187079199024090756e-04,2.031444713973644400e-04,3.230974608182837055e-04,-3.825199873016752714e-05,3.771008390177346334e-04,9.940768584647140433e-05,9.483491594296042805e-05,1.996827457408367485e-04,2.556312916128490272e-04,-3.092417282848407755e-04,-3.701274856387134766e-04,-3.929548558806005422e-04,3.048700665602848919e-05,2.235982199046144929e-04,4.092401947302297220e-04,5.190970383884514283e-04,-1.369384725503389156e-04,-4.820786440898454654e-04,-1.090037551099041563e-04,2.468060348355903262e-04,2.233130550128678451e-04,2.226639561084417735e-04,2.942664618026909272e-04,7.809203047255729516e-05,1.535385568687076601e-04,1.834700793254102848e-04,1.738176749344960616e-04,-2.248961315249589838e-04,2.947208267918591490e-04,4.143445941384648560e-04,3.690501776168312893e-04,2.348588617265366240e-04,2.710587364926046066e-04,-2.060168698546496551e-04,1.739691266667788732e-04,1.641257768244351188e-04,2.891805752866700736e-04,-6.059946814159962153e-06,2.297530239224398422e-04,3.361891114264476343e-04,5.940963539896527068e-04,0.000000000000000000e+00,-2.238501995782918742e-04,1.020850893774733273e-04,2.093585503687296861e-04,3.528351930257828226e-04,2.142588561988162941e-04,1.137275050440256745e-04,-1.095371726107661396e-04,2.931628173037335308e-05,-3.020713768714021363e-06,5.954791191374992048e-05,8.204438304648488714e-05,1.099610841262298265e-04,9.266379373886204863e-05,-3.843128516817141698e-05,-7.764071749936228724e-05,7.225892765076138058e-05,2.253937750610699050e-04,3.049249881938412461e-04,1.454846795734900155e-04,0.000000000000000000e+00,-3.317506979429317069e-04,2.074114960851343534e-04,1.169181490095790569e-04,-1.289703279752810552e-04,1.558219695945559547e-04,4.194518024011172769e-04,1.137359046003096383e-04,8.653834290569205855e-06,-5.777482954272684083e-05,1.421988129922938300e-04,-2.009786219276225803e-05,3.021681429390028761e-04,9.146719415637670969e-05,9.688859161574537790e-05,-1.914718757102316482e-05,-8.531848372984926607e-05,8.874488262601626300e-05,1.478859168990803675e-04,2.240800157146229175e-04,0.000000000000000000e+00,0.000000000000000000e+00,-4.314912780733557297e-04,1.559657695036484521e-04,-1.101070450233845987e-05,-1.451254184423667656e-04,2.325935804985675506e-04,1.093875886598493825e-04,-7.074136296359967098e-06,1.596747496629181441e-04,2.309362274881353436e-04,2.176033160139384027e-04,-3.036331803475561552e-05,5.685542531151015558e-04,3.286787287768894758e-04,1.128835982328439691e-04,-1.278444432154904906e-04,1.599714511962868656e-04,8.980870964069968289e-05,3.497094799649260073e-04,2.058425311159049981e-04,0.000000000000000000e+00,0.000000000000000000e+00,-1.136822906248981843e-04,6.578835923322408764e-05,1.943543110224079046e-04,-1.025693757104425343e-04,5.348041828393749857e-04,5.625157669140985013e-04,1.772716958135397113e-04,-2.316455547940274458e-04,2.422858045224709838e-04,-5.950640407907390117e-05,1.185966311344316371e-04,3.108474558946775867e-04,2.362819458091030981e-04,2.704924873884026384e-04,-1.380585726092807769e-05,-6.734140131247404713e-05,1.994999059438789244e-04,3.886563949450595398e-04,6.294405802611001194e-04,3.029805315139027177e-04,0.000000000000000000e+00,2.219511446553756667e-05,1.381899990534997806e-05,2.119670351083094060e-04,1.605724705838565435e-04,-3.796999804532698802e-05,1.652186058287044665e-04,1.600125013359062593e-04,2.113301602376765594e-04,-3.302014514067651762e-04,5.675806519010820225e-05,4.114758133953226810e-04,2.190303757822960632e-04,2.492419516494021655e-04,2.268293763192444899e-04,-1.067275624717213496e-04,3.676298053280163637e-04,3.083776311147133110e-04,4.739306238561772321e-04,3.620529972798473221e-04,5.905080617779172054e-04,2.737765987980278612e-04,0.000000000000000000e+00,-8.806342989620543976e-05,9.500007010632351590e-05,3.052237934589570410e-04,1.586987232232185403e-04,1.094544556256059418e-04,4.555143580747749257e-04,1.051544289312262204e-04,1.736219614250848861e-04,-3.493176348468031954e-04,-5.567056033454079807e-05,5.752894255082475881e-05,3.051179200574188010e-04,1.592663298724461747e-04,8.347498229027342084e-05,-2.809425111506391303e-04,2.376659751084147175e-04,1.778038220775713860e-04,-2.598422187777577272e-05,1.203266701578774062e-04,2.347089438136621829e-04,4.916390213475107683e-04,1.691094482741755886e-04,-5.101887329467750382e-05,3.194182929044554883e-04,-1.144188161827903809e-04,2.292786133346672028e-04,3.338184858429582525e-04,4.067574167729277965e-04,-2.492615399946329906e-05,1.289575836796227741e-04,2.159836221891692676e-04,1.793229838266692359e-04,4.702576151452363107e-05,-1.016793397779287340e-04,-1.631892092747921832e-04,-9.898085159841196420e-05,2.166447745689542722e-04,-1.083961361833348560e-04,1.547347249830716902e-05,8.631669017690913204e-05,3.653421585338202399e-04,2.398553581096333370e-04,2.544447471282343257e-04,0.000000000000000000e+00,-4.598556701170819630e-05,-2.067249019147201898e-04,2.102982674478261584e-04,7.617181984229974751e-05,1.452505648369019483e-04,-7.043544507608083440e-05,1.997141236841078562e-04,-1.188442233899743002e-04,-4.824047185788880681e-05,1.406997944458001227e-04,-9.706208418770628549e-05,2.201419485190088388e-04,-2.100718970896579721e-04,-3.729058151362898824e-04,-1.783749943062722695e-04,-2.757253148312141522e-04,-1.207812796148213222e-04,4.418665692340430543e-04,3.701383342245008305e-04,2.109894596864375920e-04,9.520236285842570759e-05,-2.654062915319826228e-04,0.000000000000000000e+00,-1.741833502730796748e-04,-1.902456089467823952e-04,4.330899800508215982e-05,-1.251566701624521087e-04,2.877047004272615012e-04,2.380400659063196451e-04,3.983615463800318926e-04,4.996538307353736883e-04,2.661259021608605876e-04,3.309787199669342707e-04,-3.092011550103029838e-04,9.430256785284545377e-05,-1.032201888611752519e-04,-3.016734737438275566e-04,4.991097298559887103e-05,3.361821595947013064e-04,1.898738590476948119e-04,2.009761280465229645e-04,4.940061412558644947e-04,1.108069343306657969e-04,-3.564732795917872768e-04,-2.079643866638722696e-04,2.409398568529947716e-04,-1.867408046463997398e-05,1.011007795295043734e-04,-2.364354286640523765e-05,3.511962677746614022e-04,2.101705144686813627e-04,2.252753563377582783e-04,9.810960905980808629e-05,1.528278741321790948e-04,1.868136494376683584e-04,3.559066623817353078e-04,3.029699875598730087e-04,-2.685797293816655977e-05,-1.523116615335010191e-04,1.357956820445915369e-04,1.925296145650991003e-04,1.390858307816063516e-04,-1.475377152568101808e-04,1.159836724900398144e-04,-1.467431132724594605e-04,2.471293993531467549e-04,1.613395661506294239e-04,-3.708258147451001633e-05,1.451598207847509131e-04,-2.824917590049925401e-04,3.566300456623527839e-04,1.868207056111166045e-04,-1.792702627813682627e-04,7.938580095107040067e-05,6.838519953938314831e-05,-1.356545514284582059e-04,3.587842022266706974e-04,2.893611239986235129e-04,1.398340313984242555e-04,2.333349598639477369e-04,3.667275555630579746e-04,-1.311981824282255611e-04,-1.525903661837551672e-04,2.139389099581997166e-04,1.001159390160867699e-04,-1.073897567811954744e-04,9.214104558995307487e-05,3.149490406374005859e-04,1.534483211579830322e-04,-3.077656066010518786e-04,2.160840900019072737e-05,8.215581329986408924e-05,-3.940008947432979615e-05,-2.295206307831928835e-06,1.914183782833924602e-04,3.395351259111470762e-05,3.725478037664222168e-04,3.812979193215487017e-05,5.816554999561488414e-05,1.543551667221229595e-04,4.977485746441303948e-05,4.118862953746186780e-04,-1.734829285229532445e-04,-2.228464151263001027e-04,4.302008973983542975e-04,-2.425902666096876620e-04,-3.762526871694842534e-05,1.004421973329158751e-04,1.442715484267627856e-04,-2.258551294851689911e-04,-1.576733951437492027e-04,4.578025704104349828e-05,1.693739332989880665e-05,-1.392140241243325762e-04,-2.182697392919963212e-04,-3.404642914684887471e-05,-2.835755073322917858e-04,1.619756835528161768e-04,3.053014957603026117e-04,-8.540781228964026533e-06,2.740594857833173736e-05,1.370787427864727419e-04,3.190994061709474501e-04,1.945258815813024505e-04,-1.817830306087319433e-04,7.016581495234661689e-05,-1.998420072910678301e-04,4.579144580110947186e-06,4.102701585942412422e-05,-4.425005272180147781e-05,1.137619180666509644e-04,2.803399867341010575e-04,1.768306056710168116e-05,-2.218973260429970510e-04,1.113859179676237406e-04,2.939266003127068432e-04,-2.015345452719318126e-04,-1.574438254655330621e-04,-2.395055884766888516e-05,1.564696892589510031e-04,1.552649562704129895e-04,2.023708037338690121e-04,2.477512911665933791e-04,2.954503640798224954e-04,2.584691093167524223e-04,5.927773422294962540e-05,-2.883059061196505428e-04,-2.905314692659277795e-04,7.261888002992969459e-05,-4.584826216385303707e-05,-2.071310900477844343e-04,2.168120148663279601e-04,1.653257082677904118e-04,-3.903778219238018799e-05,-2.767687472533944060e-04,-4.769631555328886723e-05,6.831466556257120674e-04,2.727927006927836342e-04,1.786436715565305493e-04,6.295686365252328861e-05,-2.069712584018531656e-05,2.182428217426870816e-04,1.145140085566323805e-04,3.383862368159796770e-04,-4.236968904956833266e-05,-1.242080384983386323e-04,1.123817466296908872e-04,2.333092190722142590e-05,-1.635729028472967736e-04,2.035615175039026166e-05,8.841051434272802450e-05,2.051112325742220966e-04,-6.544295101216397184e-05,1.460423625214305539e-04,3.286347600227045729e-05,-2.338149566182708659e-04,-3.886948035219465461e-04,1.576809856984446277e-04,2.146395008865933810e-04,-1.410243335844297565e-04,-5.936587075930848067e-05,5.569785992317128264e-04,-2.613890387836455327e-05,2.626590600339860767e-04,-1.930458103583270509e-04,-2.492435633360525144e-04,7.389064321861136143e-05,7.397656408928848803e-05,-3.244495821408290145e-04,-1.593640182110330243e-04,1.286734806179248727e-04,1.531855252887995636e-04,1.354782642584408873e-04,1.607372435412536950e-04,1.781703000432085778e-04,-3.751017587959441270e-04,-2.594612941038790016e-04,2.673588705457401876e-04,-1.438994480691057839e-04,-1.717929703438382234e-04,-8.987676288720561509e-05,4.038745191865231898e-05,4.689395212045512290e-05,-6.444631049917931857e-05,4.123273712588681962e-05,4.531552000669077909e-05,1.427055886844965185e-04,-1.312438713837163669e-04,1.872945535955224908e-04,1.233137379825518078e-04,1.661458121323953260e-04,0.000000000000000000e+00,3.751093584154111633e-04,-8.646351302899056188e-05,-3.598856156982597381e-04,-7.360384336475275574e-05,-3.343714169571954830e-05,-1.074515553562724963e-04,-1.940184829913738768e-04,2.167697239094590811e-05,-1.129773954196021716e-04,-2.940410278085608324e-04,-7.314525245651603820e-05,1.838412725556861000e-04,2.218105780427248705e-04,-5.333753736778014382e-05,4.197769658494118023e-04,3.269953231377102296e-04,1.959915649628033341e-04,2.909742554734560797e-04,1.762288352485177911e-04,9.693825748389377044e-05,-1.024168479760689777e-06,-3.308520711918266541e-04,-2.053259245583167504e-04,-3.721627810440217136e-04,-3.420630134412085761e-05,8.708395806504359241e-05,-8.011717861599245848e-05,2.638652407008168174e-04,-1.889115105947882054e-04,-1.895874174648761303e-04,3.654090195627074492e-05,2.678796207973647417e-04,2.891983795629281847e-04,-1.923623223865211643e-04,2.066937818008417378e-04,1.476384336774831782e-04,-7.493220711798220931e-05,2.621693725981266449e-04,0.000000000000000000e+00,6.090496915532290217e-06,-2.191498102101701594e-05,2.236546538742834641e-04,-3.161314952214585785e-06,-1.372929292472634328e-04,-3.599431929591872495e-04,-1.709546869297280081e-05,2.343153808374558590e-04,6.839123077201970144e-05,3.302985145015983090e-04,3.877882661035507287e-04,9.084012780242629328e-05,-2.441842817703584480e-04,1.884665556969775634e-04,3.223500950511019197e-04,-3.076635866760603377e-04,2.097006105684843093e-04,2.608774442048409498e-04,2.711654428463657215e-04,2.894862269264585671e-04,4.392176141822289937e-04,0.000000000000000000e+00,-1.332430534143887006e-04,-1.346948923168151996e-04,2.552253040126574251e-04,8.454288644709479611e-05,7.741720871213704481e-05,3.221836733599293132e-05,2.753562726129712979e-04,1.099113985504893083e-04,-4.774128284054674558e-06,2.552186022166654596e-04,1.301493155472129557e-04,1.500604157058296328e-04,-2.033399806523579826e-04,-1.070685490625113167e-04,1.570941762686862899e-04,8.613487629321453097e-05,2.265835908926993626e-04,1.157581261610473873e-04,2.601962402307763934e-05,7.429810327926048203e-05,2.859215457441582138e-04,4.931760602572260845e-04,0.000000000000000000e+00,-2.505778594623889904e-04,1.884703441131995539e-05,1.854632641924672969e-04,2.314633900700376610e-04,-8.390977832373876799e-06,-2.992845379249540138e-04,1.705738002741573345e-04,1.606764815978048802e-04,-9.214389424013665346e-05,3.477452984922721306e-04,1.511774759188080582e-04,-3.237486581693784860e-04,-4.455481639898804152e-04,-1.712351132544955403e-04,1.433424031857173946e-04,1.660275373193034320e-04,-5.504368915696535540e-05,-9.975837235826114373e-05,1.608721382308983606e-05,1.092084530625981416e-04,-4.304345547279377987e-05,5.427048022126569529e-04,0.000000000000000000e+00,5.865620448702227438e-05,2.763090320140383659e-04,3.305011405814452198e-04,2.181977596907461810e-04,-8.716257358639233478e-05,-3.069083508481389492e-04,1.026019869515276271e-04,8.061171691942366412e-07,-2.805573954234475299e-04,2.404607666806337317e-04,3.277676589939140382e-04,-1.171436092375666317e-04,8.254901013052457805e-05,2.693982713489727625e-04,-6.258623995998782501e-07,-2.316160502976616651e-05,-1.227303121764600961e-04,2.200423672648366981e-04,3.785638795967081333e-04,-3.740972202739962067e-05,6.013043596320495106e-05,4.736361376738714790e-04,0.000000000000000000e+00,7.984128592571590759e-05,3.482082368973748424e-04,3.020939015687778271e-04,1.334327825296192070e-04,-5.108192281046818474e-05,1.491350828707049825e-04,4.072495652273922244e-04,-5.570343939065227224e-05,-2.683927895654517038e-04,-1.789235732168702588e-04,-1.095022604867987938e-04,6.391883658078920138e-05,2.523531005551715310e-04,2.876144160497000096e-04,1.320486532029845473e-04,5.396453281143738609e-05,1.655787340639903852e-04,-9.470716250971309715e-06,1.373556965148859440e-04,8.021563059067924597e-05,6.031472817132660000e-05,1.264916726317818487e-04,0.000000000000000000e+00,3.471567306188346461e-05,-2.639135242968879743e-05,-1.212032156497974559e-04,2.191276612193662657e-04,1.420184117019423077e-04,-2.914588726938405054e-04,-1.570243398996014046e-04,2.417502119359123906e-04,6.605067860294451402e-05,-8.051279069557324309e-05,-1.607621760923728103e-04,1.217283345811249557e-04,2.142243239041115950e-04,3.579501501806170742e-04,4.739161346109472200e-05,-2.370728609166730303e-04,-7.725619570412709176e-05,5.820391601119444567e-05,-7.537095505712193425e-05,8.642004163537836165e-05,2.143680465777025152e-04,1.997645768013086545e-04,1.043393173560145466e-04,8.557785239559213657e-05,0.000000000000000000e+00,7.484636836951931720e-05,1.876761406024606471e-04,8.921740738087429715e-05,1.609460724855513072e-04,-9.233292343044197201e-05,-1.760671201317011566e-04,-8.652162954327174114e-05,6.774931086013741364e-05,2.875157172926328026e-04,8.276496333033049970e-05,1.341799465254077186e-05,-1.507169375480449924e-05,1.934176131593951734e-04,1.639233367176055759e-04,1.946026887016595217e-05,-2.755551349636709631e-04,-8.839643531780530690e-05,2.703577158302373573e-04,-1.031940173994704295e-04,3.200016105470510552e-04,3.824942206506449323e-04,3.845619000468336189e-04,9.054277060194950641e-07,-1.289721361544623091e-04,-4.768641537411005729e-05,9.538732252870491543e-05,5.316667902957340617e-05,-3.628128524542061451e-06,-9.174303847780589463e-05,-1.283064683876393712e-04,8.546812623624267988e-05,3.727562658784257417e-04,1.233743311339744731e-05,1.017464009883128273e-05,2.272155346832393738e-04,7.049923463563961617e-05,3.433636091566374710e-05,-2.637324786041126421e-04,-2.669042967316938406e-04,-6.304178076013468052e-05,-5.089251631717852913e-06,4.778503015877364878e-05,1.598323220115876390e-04,2.874873574248280233e-04,1.199359595208131555e-04,3.072195169547364650e-04,2.691029917714577780e-04,2.242569663649015546e-04,0.000000000000000000e+00,9.943813059569456974e-05,-1.951669961007588983e-05,-7.212800742882751631e-06,-2.525991093366913308e-05,6.720672328635323453e-05,1.793767405412136898e-04,3.065930838889229047e-04,-4.184964192659528605e-05,1.897972184558923857e-04,4.412607177459464038e-05,-7.445268897213656943e-05,-1.185315262300804602e-04,1.466531736982883171e-04,-4.369248965258324064e-04,-1.328091286978265743e-04,1.776132799132895974e-05,-1.151783738499010290e-04,3.351959653904068213e-04,2.712218947595005790e-04,3.840415502449141989e-04,-6.465437708008492477e-05,2.943350048214956943e-04,2.467285388458739402e-04,-1.276095268341394012e-04,0.000000000000000000e+00,4.038482326107349577e-06,2.331027032851581022e-05,2.367782818167632464e-04,-1.783368065448625759e-04,3.079280861433234554e-05,1.889559568375654612e-04,6.708612276261856681e-05,-1.422412164242759707e-04,8.743485523741455537e-05,3.474234595713943650e-04,-3.618000208024563951e-05,-8.478665988352106025e-05,2.408410357595242618e-05,5.746269540553063115e-05,-1.468380193790241211e-04,9.576586551463235153e-05,2.449833974729606276e-04,1.845116930316013676e-04,2.158418330709824598e-04,2.991166886488078465e-05,1.717298819260632746e-05,9.919479988411740998e-05,5.989987394225398395e-05,-1.714122062166641042e-05,0.000000000000000000e+00,2.079643866638723510e-04,2.373295293397459360e-04,1.101300985987940507e-04,-7.132349103224063316e-06,-2.484881890594827468e-04,-1.550502089252050455e-04,2.456100743225133687e-04,1.848588569683319203e-04,1.602098030563067798e-04,4.614421559100596610e-04,3.315799333307478431e-04,1.524484971752609094e-04,-1.778035281329225724e-04,3.665156027664700209e-04,1.379549136593827979e-05,6.816042251476846366e-05,-8.116020409712802145e-05,1.908016871175955873e-04,-4.670200800949415816e-05,1.010846537756245761e-04,-1.315451134266573303e-05,3.568784736214172392e-04,-2.855289207979435436e-04,-4.103307586069664933e-05,1.573226157959758931e-04,0.000000000000000000e+00,2.264207409632787069e-04,4.839349842211319408e-04,-9.168216991891867823e-05,1.080675135649133984e-05,-1.746781083167298703e-05,1.733705708794473950e-04,-2.391214190592738978e-04,6.314325723953293987e-05,2.043066886270485777e-04,1.194444344153086879e-04,2.257327371880168748e-04,-1.606602844193257411e-05,1.433416654893902745e-04,2.249783114555759292e-04,6.655502944355928732e-05,-7.847574345414962593e-05,-2.753078785941150217e-04,1.723188588336246728e-05,-2.592169442697424145e-04,2.287158064209758080e-04,3.371474999150171951e-04,1.345149147054936606e-04,-1.431337730488923556e-04,-2.239235235808582794e-04,-1.280895865384501101e-06,4.535147814761322544e-04,-3.877764621792187063e-05,-9.442156634371931339e-05,-1.544192416594916391e-04,1.784816131549863121e-04,-1.152994553260515567e-04,-5.153621920032669130e-04,3.404587732890419294e-04,1.959484061139751463e-04,-1.071569460874324651e-04,-2.804007390858671996e-04,-4.899871754549093460e-05,2.359538149458938173e-04,-1.154879403779288880e-04,-5.279088447013171410e-04,-2.528891054682935131e-05,-3.278162734670980131e-04,-4.732048226459424330e-04,1.385557068544865681e-04,1.637889466370137832e-04,1.906088965334962475e-04,5.343386354021216304e-04,1.544633907799355932e-04,-8.944395774323342537e-05,3.416999792326275978e-04,-2.209378145667635304e-04,-5.623976089305500562e-05,1.428985988379761682e-04,1.836081027401460157e-04,-2.909839047493659981e-05,-4.618640539737887442e-04,-4.577560282846019279e-05,-1.035044232365015405e-04,-6.586757168979313231e-05,8.985825154833102630e-05,6.489553127005099047e-05,-1.032372467944732051e-04,1.439370556137057125e-04,-2.076422832020742473e-04,-1.303654096928796814e-04,-2.029412813482072851e-04,3.130022225238170228e-05,2.904733203385230167e-05,4.945023211751501719e-06,2.070836107556747632e-04,1.860692362962125198e-04,3.248724674752594328e-04,5.760476347472675467e-04,2.367226266405634421e-04,9.619126369781200051e-05,1.983223536523016602e-04,2.558218651508020075e-04,4.517214237267811410e-05,-1.106800036057223194e-04,-1.275545626756857676e-04,-3.753223582879805379e-04,1.569940813873801268e-05,-7.858627979306306323e-05,-1.361121385062352630e-04,-1.900828691731567611e-04,2.219296407236929288e-04,-1.037750554261589712e-04,1.599605436164315802e-04,-1.063109281263540143e-04,2.775121727304476161e-04,-4.365140984293598930e-05,1.905400946547434907e-04,9.271165688516280117e-05,3.790775231596793852e-04,1.535307102211319076e-04,3.151679899452948866e-05,-1.434776275334693433e-04,2.736536753133089663e-04,2.043989247372655796e-04,-8.496531775010140140e-05,-3.520156698479641076e-05,2.017465232755563382e-04,-9.546272987180267342e-05,-2.323323948420843456e-04,-9.536841654374945672e-05,9.121502868780896427e-05,3.663930279920154577e-04,-1.019962318133151431e-04,-4.852015581098714200e-05,1.497425014700627579e-04,1.067518412088056787e-04,4.629388400507013961e-05,2.507022760384105330e-05,2.514435677422401138e-04,2.421944885200171286e-04,-2.257032611809299419e-04,-5.405822662763637707e-06,-1.001192293003910473e-04,-2.872490990042718493e-04,-3.399637966392890791e-04,-2.906983573143997893e-04,-1.890878161787787511e-04,-1.335504093401117406e-04,7.327351994106002426e-06,-1.055894483291928705e-04,3.303694772582203105e-04,1.351757224995810971e-04,4.400959827141119564e-04,4.722672564262020596e-04,-1.489550358696594150e-04,1.576366775061078358e-04,9.488052635821271196e-05,-1.893943743713826725e-04,-7.607607361795050253e-05,1.569757182579899816e-06,1.207476061358236326e-05,2.258393707160714513e-04,-1.514730223721218194e-04,-7.971083763871714698e-04,-1.562198279976904610e-04,9.505676814455141742e-05,-2.302858068471333713e-04,1.494039096027069229e-04,-2.832018928486360770e-04,6.529501959718658251e-06,-2.591452115809071591e-04,1.997140815315425163e-05,2.005372064771826902e-04,5.175002794241395767e-05,7.000509849008871590e-05,2.058223429840044881e-04,3.233380074836268773e-05,-2.528873530909604410e-05,-4.141154081605499565e-04,-1.009675301583815347e-04,-7.568266436860082160e-05,-1.317718844019619660e-04,2.385254638325962504e-05,1.907679449189547119e-04,-4.738629740631714683e-05,2.054165913119030470e-04,7.369534815473654491e-05,-1.108256823533239739e-04,1.358943107302483694e-05,-6.873420702643356299e-05,7.590476742244308143e-05,2.479153778274243770e-04,-5.917067622812590186e-05,-1.116613765073401439e-04,-7.967596802723572096e-05,-5.054906063060742759e-05,-8.117179919586809344e-05,-3.098229397430966696e-04,-8.590954582532518802e-06,2.378063956205680096e-04,1.901657556769372642e-04,-1.603550708064593747e-04,-1.103112672526576887e-04,1.867390332030670341e-04,3.953002412760065116e-04,1.180022651821981670e-04,3.343303990820053226e-04,1.074337022365484516e-04,-5.213261008284068377e-04,-1.409448455911117501e-04,-8.008331377452107062e-06,5.011300749186458394e-05,2.356024183367595053e-04,7.012763478894780747e-05,-1.291369066916983025e-04,2.898324336310124580e-04,-2.539437845273148750e-04,-1.054629589538759568e-04,2.236655487990731690e-04,-3.513710723694132582e-04,-1.491281339525074784e-04,-3.195371560668493313e-04,-1.315779856764207100e-04,1.962882739287989708e-04,5.065195499415433471e-04,-1.465272215641578914e-04,1.075687400951204939e-04,4.079953367796369194e-04,-8.239802514779634416e-06,-2.419372286733240216e-05,-9.289832311325723702e-05,-8.735267514252855316e-05,4.450024521996495374e-06,4.410724820779946886e-06,2.336899942133102356e-05,5.335119209866240770e-05,2.261534629661276347e-04,-1.878985764732433094e-04,-5.484311805962123227e-05,2.792846437449195512e-05,1.463755695558175687e-04,3.492808119804987244e-04,5.348361628668509872e-05,-4.613550837060070137e-04,1.311589983423055333e-04,1.892980590163309551e-04,2.236457595356286911e-04,5.151370728918005983e-04,-1.832487714668790449e-04,-6.986467178907308079e-05,-1.729412563833861432e-05,8.907787198672126078e-05,1.133129734453099168e-04,2.658332822537103003e-04,-1.431680826556864356e-04,-1.489489282953296375e-05,3.476908969831797217e-05,4.461586686813614415e-05,1.311971579654577151e-04,-2.358828169414884385e-05,-4.493268885138677600e-05,2.584208476671570436e-04,2.419041748140283315e-04,-6.885554759308422997e-05,5.527974601254377645e-05,1.151866961621671702e-04,-5.102996403123503027e-05,3.131710551393034970e-04,2.518146659313949326e-04,6.575452152405875540e-05,-1.640880450110302001e-04,-1.611565114459207707e-04,4.839837633868849056e-05,-4.715733527854204033e-05,5.603574249628466356e-06,0.000000000000000000e+00,4.518417304200395012e-05,1.841001846443451179e-04,-1.917588449114928913e-04,-9.739992708857716554e-05,-9.511098258611561042e-05,1.106484148307875745e-04,-3.622241422485286368e-05,-3.166528745993610902e-04,1.355943231475092157e-04,3.737968326803439847e-05,-3.389944064617073506e-04,1.129644658941205082e-04,1.984980699370836809e-04,-4.958979409165713813e-05,2.692650725947282205e-04,1.688507337492249920e-04,6.862349875412047928e-05,4.081967858512177241e-05,-2.145241823900361470e-05,2.099327075396801331e-04,3.276410003098140125e-04,2.018624185918673581e-04,2.888206812854121619e-04,4.095303999317645351e-04,-1.808502644677762155e-04,-9.890839644262315058e-05,-2.316122084670085390e-04,-6.286949631967457867e-05,9.204998723339140310e-05,-1.361782454101033747e-05,1.478495835730626222e-04,8.622292343432741977e-05,-8.689168777363791979e-05,9.225497950894818219e-05,1.155065672347954859e-04,1.256449714552787163e-05,3.229639097884299810e-04,1.012763461701826992e-04,2.631231649948736475e-04,2.121105716879364384e-04,-3.357253153945168609e-04,-7.573395905743020751e-06,5.188764408489618656e-04,6.192235156889337386e-04,-8.948851352080947421e-05,1.632204563255845232e-04,6.544923078766570106e-05,-1.942361238786971512e-04,4.594103024586097741e-05,-8.579758275320287664e-05,-3.353241417016682114e-04,4.257859075163589397e-05,3.371873349779093659e-04,1.988415508227210963e-04,-3.121090920770064499e-05,3.805601266358841269e-04,3.204045703858092128e-04,-8.034727728043555915e-05,5.375188768102580382e-04,4.194129541775442976e-04,2.133841352872950948e-04,2.828321816791076358e-04,1.788613220698675684e-04,1.308552150450966454e-04,3.043055216356448838e-04,5.395278439382617897e-05,1.797894453098252787e-04,9.114572541712109250e-06,3.402433285745178016e-04,-9.082948255528017938e-05,-3.438906476451059633e-04,-2.738243289957478939e-04,-1.562255454141179656e-04,1.287260777736655057e-04,5.715817167809061829e-05,1.984169670152149251e-04,2.298019104126582162e-05,1.484367691784268704e-04,3.038258007355308047e-04,3.288631331825839243e-04,3.640105659440827281e-04,-8.681820147390865007e-05,4.907204815247354540e-05,8.836154894374074076e-05,4.082303125431949241e-04,2.748968090713376010e-04,1.571546311031891106e-04,1.794725902219324097e-04,3.881840141183424226e-04,1.227461626728268082e-04,-4.165656619160780809e-05,8.848525201101586002e-05,8.166651108175574704e-05,-2.422689914876649921e-04,-7.954538200115715866e-05,-1.395176485171874877e-04,-2.375613963176818831e-05,9.377031881742349938e-06,-6.813138457936054686e-05,1.033081455812553782e-04,1.268893826428049308e-04,8.189995592740810905e-05,2.753972973583769957e-04,-1.336804655236477953e-04,-1.309779849142964992e-04,-2.120978977851196426e-04,-3.369846031372434616e-04,-9.161236138500863187e-05,8.471372219577895542e-05,3.470918187649059189e-04,3.249884703718070554e-04,-5.151279946319355155e-06,1.849414269105741559e-04,2.675435077862459632e-04,2.522380747060706005e-04,4.836714833430382529e-04,0.000000000000000000e+00,4.463250739226295939e-04,1.389386748085470437e-05,1.464730764966373311e-04,-1.964680194679948601e-04,-9.277254065356159202e-05,-1.471512302238542368e-04,3.320899229281819191e-06,-1.706187557387123450e-04,-8.269250219800448204e-05,1.338041724564437466e-04,-1.040149265509668889e-04,-2.216525236032283188e-04,-1.378781867413590538e-04,-1.476761747591325263e-04,5.300893140505923753e-05,-2.198770211137494976e-04,-4.981555375749422874e-06,-8.141605588191512085e-06,2.496651949063531987e-04,2.192125951370874125e-04,3.319538720352650275e-04,3.280651683341387261e-04,5.823583148301265109e-05,2.354146373179633023e-04,0.000000000000000000e+00,2.157879833061738433e-04,2.099580514763127936e-04,4.230704324327057460e-04,-5.259851487407899642e-07,-2.648155565955692269e-04,-4.189092525605436291e-04,2.923009901806680939e-04,9.082935314680560190e-05,-4.180828129932151341e-05,1.638448365004745047e-04,-9.932695534342720093e-05,1.083290693820296617e-04,-2.915197046813045045e-05,3.848145603619498542e-05,-4.038897027223700622e-05,5.587484287968447899e-05,1.628354652241231770e-04,1.479861386104906957e-04,1.984672651234789932e-04,2.177264461741369793e-04,1.055271850196499859e-04,-1.721952394073711389e-04,-1.284612720724102712e-04,2.295106664337911442e-04,1.422444347467095816e-04,-2.094424642695031909e-04,1.540986404962764596e-04,6.801515402750002350e-04,2.320679801496203741e-04,9.719912380981823494e-05,1.465102231127532939e-04,-4.645152648209696579e-05,7.992436539050035680e-05,1.122201806841211544e-04,-4.826808711762934647e-05,1.691850876804659428e-04,5.468769948654254062e-05,6.818100800317761376e-07,2.463580760457158010e-04,6.188729696973222427e-05,-1.311115421881812592e-04,-5.569819738780738052e-05,1.870193154388145743e-05,1.679745238061701928e-04,1.141956245665623140e-04,-6.650579119364045770e-05,4.269078849172574830e-05,1.773030246474738606e-04,4.607184255547188399e-04,9.374438793034937218e-05,1.172047968765713871e-04,7.052505737157963790e-06,1.197966902130689258e-04,2.992475674710287073e-04,3.767605128555044202e-05,2.061614658804061459e-04,2.828317302444267051e-05,-3.581742430485880947e-04,-2.175519922125007373e-04,-1.357351868248579494e-05,8.134574212354266001e-05,-1.889288107277825059e-04,2.167561904175764782e-04,1.989342272285624531e-05,6.233033742306006830e-05,1.078142815570900289e-04,-2.572031306887696041e-04,-6.524144006319770883e-05,-8.737224808705158319e-05,2.488366631364318893e-04,1.155149397782866361e-04,3.213648917299282153e-04,1.541162719477629398e-05,2.099260693508257910e-04,1.586691192215613155e-04,-8.736899336030145343e-05,-1.820137954157434641e-04,0.000000000000000000e+00,-5.422927650509811349e-05,-1.588116605914622497e-04,1.082047151692988421e-05,-2.613883505833575904e-05,-2.475863654973751066e-05,2.266187871271144281e-04,1.707751652829998421e-04,1.896726983341046773e-04,-2.029282872509982351e-05,3.402308139179832297e-06,5.498934929943716460e-05,1.955698939466989029e-04,3.528663090549204011e-04,-1.135715348899421403e-04,-4.307214602126186766e-04,-1.170946741391514038e-04,-3.820588283167449537e-05,-1.247990621515383195e-04,1.153653195613666983e-04,2.239916502064330105e-04,3.809198076120591135e-04,1.199103006987592228e-04,-1.577752367810476223e-04,1.183514885766521368e-04,-1.175060858636522643e-05,0.000000000000000000e+00,-7.798617280886171131e-05,1.140432452860149344e-04,2.058223131868215921e-04,-4.402740980487894582e-04,2.141215673448328756e-04,2.326566303582740995e-04,-9.805409825934600617e-06,4.486287205800292948e-05,7.496156664284217498e-05,4.571716912831684347e-05,-4.150669184068897093e-05,-1.427308405512860557e-04,9.363677858047446130e-05,5.157159656470856848e-06,-1.883540996584477602e-04,2.136213407132358296e-04,-7.838073574386643047e-05,4.311547644126663024e-04,1.533706587033275095e-04,-1.657120490026128010e-04,2.485085305119581886e-04,1.670291861728940392e-04,2.839448559123787909e-04,3.592796142492100220e-05,-2.262375849508529557e-04,0.000000000000000000e+00,-1.520924484072122063e-05,1.310694319922885544e-04,2.451551317975554471e-04,2.249495306338344567e-04,-3.989139485953802858e-04,-2.696486539900537729e-05,1.655357836597046400e-04,-2.569101009493977720e-04,-3.255936833428122921e-04,-8.418169144669788442e-05,1.217628585030744340e-04,-1.752543237533092766e-04,1.742624105555554332e-04,-1.385561414239410051e-05,-1.626085161753283497e-04,-1.172636062890023388e-04,-8.929348403156560203e-05,7.159965617829868497e-05,3.595929967419581714e-04,2.511403840561263223e-04,1.253257775599469820e-04,-1.353431061931884471e-04,-2.176296906152634084e-04,1.741075734384193129e-04,1.686261345212063296e-04,2.104150075544874824e-04,0.000000000000000000e+00,0.000000000000000000e+00,1.194697756302790228e-05,2.566419181885768721e-04,9.015050866653467020e-06,-1.056222612331852837e-04,-4.050707397372057855e-04,-8.896304456840308102e-05,1.490234209427524967e-04,3.666472355004812324e-05,-4.429075526779031511e-04,-1.581435167421594993e-04,1.796264495206704201e-04,-1.141188631697228934e-04,2.602744477130552775e-04,1.553512820808817889e-04,-1.694595816815440555e-04,-1.743685022616046161e-04,1.131905652023343763e-04,2.993759678877292731e-04,-8.270536152037826492e-05,3.719136971034881357e-04,2.216715108326537643e-04,4.400606136264728201e-05,-1.925462428418061624e-04,-3.128738751956257536e-05,-4.453231453308523923e-05,-1.589479701799259201e-04,1.806084998810586278e-04,0.000000000000000000e+00,2.738627413112578639e-04,1.815043514652487527e-04,8.643532413199709265e-06,-3.559037571557561129e-05,8.211185451136192499e-05,1.984123484448870359e-04,1.041777096992866183e-04,1.874782843626152790e-04,-6.460753578074843488e-05,2.255758003081935708e-04,2.401417117872995147e-04,4.830812479465281418e-05,1.596333726590940482e-04,1.737334254624525395e-04,1.808454940515347978e-04,1.529637682778769373e-04,-3.824309070927943335e-04,5.383392661665777582e-06,-1.627776112599088360e-04,-6.334249596426580887e-05,1.750588089653681801e-04,-1.468004418042153812e-04,-2.272731592781767251e-04,-1.723629982292730460e-04,-4.968016534818100625e-04,-3.079974333343039449e-04,-4.287895845435033947e-04,-1.533145566914443422e-04,4.754798643819942503e-05,-3.608198369207433647e-06,-3.221370156830989260e-04,-9.456248728568477789e-05,-3.384615408480005244e-04,1.023201512279640126e-04,-1.670817172807607693e-04,-3.352180603241675647e-04,4.174235115219819488e-05,2.925959234073910648e-05,7.028691404658864628e-05,1.074699192737117693e-04,-1.914678842616526582e-04,3.076043526703792328e-04,-3.508069295903815609e-05,-2.672291103574721965e-04,5.842907403993896029e-05,2.224251228742338377e-05,-7.761609441504587381e-05,-1.501887610705939901e-04,-7.907919900555333500e-05,-1.847749748529198678e-04,-2.053299152462331707e-05,-6.240711226712401046e-05,-2.074987214027795520e-04,2.625204575420186774e-04,3.056720512771986297e-04,4.617253764333397554e-04,-2.772862191386911014e-05,-1.238296457145215349e-04,-2.701484423179439931e-04,-1.478715922913663374e-04,4.550163857387069626e-04,3.408798802070444993e-04,-1.664934497256442640e-04,-2.820885678833274937e-04,-5.906452223599712500e-04,-2.243383364275642797e-04,2.401829643783011999e-04,-6.300594239704539385e-05,2.933393060190364913e-04,2.056063269749212831e-04,2.315095906652371756e-04,-5.133989251594282940e-05,1.361719331625355057e-04,3.121734531234458907e-04,4.433531977387356049e-05,-7.496551559670381172e-05,1.781085676373338211e-04,5.288246960358571015e-04,2.107692939237390539e-04,3.487527496585729817e-04,-3.408753008056579346e-05,1.761228583145001679e-04,-9.150265895950850656e-05,6.885779568488661223e-05,-1.038767321654497888e-04,6.640143284259060344e-05,9.335441890237296844e-05,1.485564503235909834e-05,-3.472807599138009885e-04,-7.233721337461413445e-04,-2.130431600812774707e-04,3.993049400681296065e-05,3.041567478017681263e-05,-2.523725232275975152e-05,9.740152492277497705e-05,-6.832719099736477280e-05,-3.551507572307154004e-04,-9.629742610570287634e-05,3.276420022924032512e-04,7.773801234511327400e-05,4.487505339186994522e-05,2.679294518474396479e-04,1.989279120110054545e-05,-2.708177829495359533e-04,6.827896317087877350e-05,-2.739986294561760536e-04,2.250394154511391599e-04,-9.522316273273517112e-05,-1.069517705520326215e-04,-5.419771696504870095e-05,-6.572774453084321666e-05,-3.323596078523423879e-05,5.484915393023706283e-05,1.964239852174311154e-05,1.356537444420886863e-04,-1.357396734575318296e-04,-1.574800530691278851e-04,-9.998350656628704025e-05,1.923828326989051652e-04,8.021461431687346806e-05,-1.385798125283829849e-04,-4.544439670066144441e-04,-1.611661662280761392e-04,2.438148412299427409e-04,-1.279346335131953654e-04,-1.210450028637904805e-04,-2.784931471093566972e-04,2.291792140586235580e-05,-1.533237314007222633e-04,3.255778453130057400e-05,3.118790414382320369e-05,3.353354658403512930e-04,-5.123225022662360130e-05,1.246650497021364358e-04,7.149416197533217123e-05,-6.117970059592072731e-04,-1.717152437585629950e-04,-1.168473168566672344e-04,-6.928763123843808256e-05,-7.722069498155324579e-05,-1.136085810020661334e-04,-1.207166199521722815e-04,-3.145963658162798777e-04,-5.716532192748802324e-05,2.664147212483497550e-04,-8.251291660275972902e-05,8.495941925488083703e-05,2.013441631607757723e-04,5.670045572209003157e-05,-4.235425770056593895e-05,-1.659985035377950296e-04,2.512251045216710977e-04,-1.455357672699562779e-04,-9.535647595201907523e-05,2.136898041679363496e-04,1.184091784445011569e-04,1.792303845591689904e-04,-2.254539773992735475e-04,-1.067958349340887418e-04,-5.240634192138823172e-04,-4.988289565026778321e-04,-1.567567383051225792e-04,-2.352670949144381482e-04,-3.562443835101277074e-04,-1.409500536255355551e-04,-2.654672210367377120e-04,-2.146294954222748811e-04,-4.000514784769655229e-04,-7.793271372908276468e-05,1.522175276632714580e-04,-2.585442662403680055e-04,2.342383366196951471e-04,4.402119100705819679e-04,-1.422812788928256786e-04,-2.178450736864913286e-04,-2.732259037109454735e-04,1.135970676132798602e-04,8.142745898257188419e-05,-8.900127837307181028e-05,2.699742169518933813e-04,6.684626121814519453e-05,-2.645894352130785448e-04,-6.647783473349910474e-04,-3.837265572633383171e-04,-6.652097455993646045e-05,-1.406147213567481035e-04,-1.013895125327413604e-04,-1.276506832125209672e-04,2.175012959645221400e-04,5.337948171083406170e-05,1.012683227659514241e-04,-1.200673577687808155e-04,-3.549077685529473394e-05,6.936925221737633065e-05,-2.831081596596835798e-05,-1.557421733319131949e-04,-1.268236932606746446e-04,-2.394929251486189851e-04,-3.491543389692649272e-05,3.920247613880170054e-05,-1.676847343287875042e-04,-1.729731109477841483e-04,-1.220881103734249593e-04,-1.091695153505381884e-04,-1.478912731260809263e-04,1.580340050473585120e-04,8.053194276668612130e-05,2.002562253953812346e-04,1.500079917627861420e-04,2.922211010155095485e-04,1.878267580012171192e-05,2.452405292795349439e-05,-1.389661618697324047e-04,-3.695290092409246000e-04,-1.716291001779055687e-04,4.639334159758502465e-05,-1.549940026049976118e-05,-5.301747142685025354e-04,1.344933019247188024e-04,4.602002112217512086e-04,3.307511540682150594e-04,1.602840560802959642e-04,3.457506372491999974e-04,6.525842785773307980e-05,-1.598978643015388579e-04,-2.538175394030832204e-04,-4.845593401030740335e-04,-2.442445825385095785e-04,5.553588227277622072e-06,5.671021765642497584e-04,3.908888464535068301e-04,1.290148271573393352e-04,4.429739547035853276e-04,4.727322990103631408e-04,2.544051476179266726e-05,-2.252645767499344899e-04,4.585765384184205609e-04,4.349512877667613647e-04,2.556076495997929368e-04,9.810332187087426555e-05,6.127131706170214605e-04,3.115435206353788932e-04,-1.281306628973825836e-04,5.052137023165001115e-04,-5.071684539762232247e-05,1.339262480875345700e-04,3.118802316696414265e-04,-5.876319100328421317e-05,7.102106621549999848e-05,7.036090823602021596e-05,1.531985115071058019e-04,1.597649285573803839e-04,-1.174436630538364660e-04,5.201780725651551304e-05,2.003384077501595834e-04,1.478208056036907861e-05,-1.307931755557976072e-04,3.902162193513017426e-06,2.000559672818431184e-04,1.963226889094345391e-04,-9.518679923354987247e-05,1.331000903054664836e-04,3.788373415037632887e-04,2.081002973410701310e-04,8.159765014922885820e-05,4.597132307216663896e-05,-2.267245996856676125e-04,-2.108209648718868874e-04,-3.075580107305803633e-04,2.238245169091495072e-04,1.477543630895995330e-04,-1.072708518972539059e-04,-1.600468148889218627e-04,2.661814712467313666e-05,-1.164930776742799287e-04,-2.774232299386477155e-04,-3.566050930914358374e-04,-1.473065225153921351e-04,-7.559196206850927839e-05,-1.277534206145761360e-04,1.428647725396255932e-04,-2.914899440414252469e-04,-3.066253734152029058e-05,8.448805821326826632e-05,3.826488966104444993e-04,1.007523202931456032e-04,1.115465212448687928e-05,-1.290699961737807743e-04,-1.725874594788862331e-04,-2.508084619175286831e-05,-1.632903523143189848e-04,-3.079281004627174739e-04,-1.003554931983712868e-04,-4.170362402216728993e-05,-1.860328688979057848e-04,-2.047904454487482637e-05,5.429841734972818258e-05,3.327302221141150720e-04,-6.297133040672449951e-05,2.278308057523113544e-04,-1.538337490858329162e-04,2.234645853166206453e-05,3.965763449215643928e-04,2.897360222925769832e-04,2.205416223325676014e-04,-9.101452014361609180e-05,-4.454728749227835483e-05,2.949815539226771362e-04,5.407611578413528235e-06,4.964510325313256227e-05,-1.600888335471952590e-04,-1.585326054013302152e-04,-2.372467269003874688e-04,-2.070778199175098459e-04,1.214992925263610411e-04,2.350482881674390652e-04,4.312732284923869331e-04,1.054183229500733230e-05,1.776574833029625480e-04,5.413254129350886278e-04,1.549073523062749458e-04,-2.559467307172353149e-04,-6.586176398686686430e-05,3.139778927118593022e-04,3.472509267895048518e-04,-1.210633494283415502e-05,1.355090821291523489e-04,3.289854157299807228e-04,3.189833506379028327e-04,-6.327495397830633491e-05,-3.474876642646572926e-05,2.951942821498919171e-04,7.782960703300585530e-05,-1.174887844117634191e-04,-2.712504286398745711e-05,2.820292318831326968e-05,2.072993587800043582e-04,2.168229630389250056e-04,6.541398037064022450e-05,1.131107103286852958e-04,1.500464542657438697e-04,1.098426079519974701e-04,3.398147229716760387e-04,1.140299556607505319e-05,-2.365347333988858066e-04,-1.362581697810181245e-04,2.177798129421566558e-04,1.193467339463528498e-04,-1.955346818949320960e-04,1.344162301470260962e-05,1.446238067896800676e-04,-8.341169488975605235e-05,-3.426934682073556242e-04,-4.289809001425721633e-04,1.625098960488552575e-04,4.654625146097748608e-05,-1.423496115780276973e-04,1.278766024149195807e-05,-1.473045812124672530e-06,-2.471309674078130646e-04,-4.143236450148807780e-04,-2.307565412670950662e-04,1.900058746287952864e-04,3.372552286775336782e-04,1.409153658400211478e-04,6.316819257697188180e-05,2.108356707213646889e-05,-1.542284823214797539e-04,2.914985968750165207e-05,5.291772233452844926e-05,-1.606800384084313695e-04,-2.240866988528407048e-05,-1.819476135080312000e-04,-6.824829683537123905e-05,2.703996123272683146e-04,1.201740778302795663e-04,-1.161334056799271589e-04,3.859401469280809025e-04,-1.945291398268890069e-04,-2.783914257743983346e-04,-5.956581383613911460e-06,-2.814538327427322235e-05,-5.270273009595501085e-05,-1.144074561928849450e-04,1.389902781441036651e-04,-9.107226003053868469e-05,4.295376400304014167e-04,2.025474591509301102e-04,-2.001476455854398363e-04,-1.421615927411278241e-04,-3.804729710671921777e-04,-1.443354175095092984e-04,-3.636825259082048076e-05,4.569344010420666850e-06,2.856335909635342196e-04,1.713756037961655231e-05,-1.644634160848665674e-04,3.646628586447863752e-04,2.862369375896157975e-04,-1.698955913297600998e-04,2.621168583695431982e-05,-1.062432093440206027e-06,-3.674337354204689518e-04,-4.633454211849863456e-04,7.215197840126787545e-05,1.644143025558747104e-04,2.521021042998311209e-04,-1.017465445228505407e-04,4.845979425474398322e-05,1.571713199932915791e-04,-3.443018248758343948e-04,-9.918712112027503478e-05,8.631776422366024609e-05,-5.583226647132317349e-05,-1.202814180229480632e-05,-4.868299687129246247e-05,-2.014812254971724663e-04,2.547915007887638990e-04,2.226027976569932936e-04,2.689593122603200158e-04,-1.170535026188667527e-04,-6.072542407212906218e-05,-7.881558419948472361e-05,3.734238043914550349e-04,2.013628772145071839e-04,1.052171666294172538e-05,3.274260612921912851e-04,1.693972247989103397e-04,1.125145584994207023e-04,3.786619011390513173e-04,1.919867136002840623e-04,4.274091717258301978e-05,-3.385170151630751529e-04,-1.346349224162711174e-04,3.265318689118313971e-05,-3.099510489158734550e-04,-2.530321815523073193e-05,-4.449931894360083023e-04,-1.438330059595609460e-04,1.892468890230035198e-05,-9.445957146056838496e-05,1.723959059401845698e-04,-3.963920686091666561e-04,2.224762893308579264e-04,1.634929263411076072e-04,8.963178704170331383e-06,1.762543004343349452e-04,4.068079720426258849e-05,6.753049671334609874e-05,3.225565241648228670e-04,-2.184127994957873992e-05,-9.588933074743471942e-05,2.358631249164407453e-04,3.468027085679621755e-04,3.584077286074627603e-04,4.033321755792647302e-04,3.749523632824191860e-04,2.190290204957248341e-04,-8.140297803554502566e-05,1.247791950194233456e-04,3.801160537959481691e-04,-2.957901015487867801e-04,4.240444822886556752e-04,8.336864592770843406e-05,-2.685425645326996449e-04,-2.901338720530334449e-04,-8.397083894643637313e-06,-9.439479040052675826e-05,-4.375631724462061573e-04,2.112368001526510953e-04,6.641279270410698648e-05,4.074363288801476773e-05,4.323378488542860471e-04,9.652511150648191958e-05,8.957022892083345918e-05,2.134533081661568223e-04,-3.145545908725348575e-04,1.070513911974924114e-04,-8.767706757204227544e-05,4.614217261772011070e-04,4.405653476585236813e-04,5.130144409516191901e-05,4.633957518340359096e-04,6.055116749847996990e-04,4.105450699830767952e-04,3.346701855866486211e-05,5.876524519780242659e-04,-3.324743399477071118e-04,2.660439642752418900e-04,1.316148259264173501e-04,-2.208873611330079256e-04,-2.220130608546691672e-04,-1.094075610914860898e-04,-1.257271810485541979e-04,-2.043923499630368660e-04,6.850082823077073979e-06,7.494937112314404703e-05,4.488162040368636786e-04,5.491079635893344221e-05,1.322964503386532314e-04,6.080656815805335860e-06,2.475533312400760239e-04,9.437201758939905050e-05,-2.368068589978114385e-06,1.678802008310673510e-04,1.130479351287216671e-04,1.480029827204277083e-04,2.009543648623990429e-04,1.987030051143481250e-04,6.466935395621430625e-04,2.078134615682121424e-04,-3.935216455409137220e-04,3.974476417483281215e-05,3.719983089025429880e-04,-3.316311774075255021e-04,5.398078110893101940e-04,3.362502818623838165e-04,3.685442269838747845e-04,7.609869173500669298e-05,-2.134702110978423594e-04,-3.405786599766597120e-04,9.978057357304014800e-05,-1.182122983903130542e-04,-6.402732969441100213e-05,3.033764720393456577e-04,1.874104308712972421e-04,2.814319168165416944e-04,7.339540765638270152e-05,2.637864724459757990e-04,1.276787424897844378e-04,-9.041013133801189427e-06,3.234559542577701189e-05,2.265801564615782201e-04,1.915638760339797143e-04,3.383091047847559211e-04,3.306166537152278851e-04,5.812364173526065383e-05,2.049847820396538071e-04,-5.524489931770148663e-05,1.660486533873888374e-04,2.077829759417226970e-04,1.512516356061366037e-04,2.812135356398790149e-04,3.613350080744560434e-04,2.041040931595156744e-04,9.517654052180259420e-05,1.824479678045989634e-04,2.551380957056344125e-04,2.534022892931237013e-04,-2.404310070542098866e-05,-4.105269329686982074e-04,7.770412730401716789e-05,2.444008322744003082e-04,-6.033888759822045832e-05,9.936698913300999274e-05,-8.310712099498002874e-05,-3.415017562836523708e-04,-2.269819053097165838e-04,-1.875984010342108871e-04,-1.952568610079135009e-04,-2.473309733783013876e-04,5.969403174533487107e-05,-1.499025906869382039e-06,1.806193223139803013e-04,4.245854742216250235e-04,5.464069020150975290e-04,2.436064500062862475e-04,-3.599609732983305921e-04,-1.619769853865222521e-04,3.237825512339586502e-04,1.396628702782402929e-04,1.358087326853398740e-04,1.548870261094352344e-04,1.302540265750220529e-04,-1.206061843140138976e-04,-2.420804694953852500e-05,1.220804415396518699e-04,8.534941559857161489e-05,1.469597482128676396e-04,-7.885315574561856263e-05,-5.600239259715101360e-05,-1.777392652623475695e-04,-7.676049750798476397e-05,-1.633450552774758904e-04,-1.260998682124744483e-04,1.675409143104847299e-04,1.621095110200707306e-04,2.469952753430524109e-04,-1.393341102548514908e-04,7.358832774048233705e-05,2.592864397509496275e-05,1.109102085825601123e-04,-1.321743109605110151e-04,0.000000000000000000e+00,-1.613328342825881697e-04,1.491301057287587595e-04,3.354737005757723396e-04,2.550673956073436937e-04,5.746054032567633410e-05,-2.443185638064658029e-04,-7.084544586655563449e-05,-2.601041833326710271e-04,-1.723444626685681323e-05,1.916221035679243538e-04,9.453029418849151109e-05,-1.061931767888886952e-04,-9.063618536463663542e-05,-2.217553098051938080e-04,6.318151211717160845e-06,-1.467865763193619848e-04,-2.821521903770357284e-04,-5.597145366328639066e-05,-5.051527578934237239e-05,2.054156488918643109e-04,4.680593018970549343e-04,-4.562412943288623194e-05,-2.311462952683105332e-04,-9.172759844275819613e-05,-3.484763180834688683e-04,-3.231592564948348664e-04,0.000000000000000000e+00,-2.759349646483340627e-04,1.213122899778529886e-04,2.237368321326732199e-04,-3.350928898306881876e-04,2.277854426154752383e-04,-1.804553488543300731e-04,-2.177554051918626518e-04,-4.419946372896813914e-04,-1.797910941679875627e-04,1.636484221323024910e-04,-1.762807458785991047e-04,-6.570835717641477570e-05,-5.261497359009581249e-05,-2.958778214614493591e-05,-1.964359894153670859e-04,2.630926933328385373e-05,1.387540420584384580e-04,1.839335170679891763e-04,-3.092979013372561237e-04,2.798550777228961899e-05,4.356090333531437023e-04,2.626390246241121608e-04,1.251887415392386588e-04,-9.799806527701563751e-05,-1.844876239975405121e-04,-2.647767901644057357e-04,0.000000000000000000e+00,0.000000000000000000e+00,-5.691693125690449858e-05,3.265640646025582197e-04,1.845742355310962457e-05,-3.639734179685014635e-04,-1.997929396162364483e-04,-6.932042764528929119e-05,-3.847891368215017381e-04,-2.274127637482930132e-04,-1.790239585189227318e-04,1.688863163609770563e-04,4.874002339183888523e-05,1.958680725233874714e-04,1.733107711075731452e-04,-1.145397685407151944e-04,-2.739137194299289110e-04,-1.429477806578516069e-04,2.404823388603206415e-04,1.809712131368681120e-04,3.620301825397602050e-05,4.120983261923721148e-04,-7.957360903240325679e-06,1.500608102431935393e-04,-2.192027438122587401e-04,-1.239072362965690948e-04,-1.235972739902031412e-04,-8.432867669619670021e-05,-1.806084998810583838e-04,0.000000000000000000e+00,3.131958651035462595e-06,2.787781869379220984e-04,1.594935141371587358e-04,-3.096931586888606133e-05,-1.663580556734483770e-04,-7.176764840702778308e-05,1.283379999326355952e-04,-7.564882138241815442e-05,-4.099305014403046708e-04,-1.277656349430118853e-04,8.019304155073631772e-05,7.997555821931310213e-06,3.090302287956171235e-04,2.907068967871301291e-04,2.947780623074992232e-05,-1.271827717720826190e-04,-1.902653328570178091e-04,2.050033179334886880e-04,3.504166945113120678e-05,1.334204562358327027e-04,5.048342386932850928e-04,-7.804698659571300838e-05,-2.176687840642969784e-05,-3.973679292546611536e-04,1.506046000450115185e-04,5.885290351454756707e-05,-9.698759267776607522e-05,1.806084998810584109e-04,4.125552085616326415e-05,9.887397712255962244e-05,-8.060495214219342013e-05,-1.350861355573117683e-04,-3.358524188744067135e-05,4.175563062930526324e-04,4.155790233080360703e-04,7.445553048399247221e-05,1.232729056499738327e-04,-5.049841732288993937e-05,-2.562556062328966654e-04,1.392008803977857296e-04,8.185295795552832634e-05,-2.367003035376433103e-05,-1.826350705745087501e-04,-2.305082559910384351e-05,2.396336974267054181e-04,2.102617542204906730e-05,-3.176006161693956933e-04,-2.107898111638894395e-04,2.929673226509077162e-04,2.984686211236290678e-04,2.499547365725954913e-04,-8.826840020661169521e-05,-6.089150271987602594e-05,1.143362809030008359e-04,-1.086051991473737570e-04,-2.364962945788302352e-04,-7.431938828338107870e-05,-3.925836174091022019e-04,2.434730115642275582e-07,1.949641363175973457e-04,2.785086896138522531e-04,1.281875625614826519e-04,1.732850255029629670e-05,3.816594891323971014e-05,7.436025198809660761e-05,1.778307944594937934e-04,5.141108868314879607e-06,-1.415572110429460042e-04,5.340646514535136394e-05,-4.399532931421492070e-04,-1.053429494722655352e-04,8.238844954262958687e-05,-7.276919526147999321e-05,2.259405463993488842e-04,-3.666839258554272364e-04,-3.775790165569585608e-04,-1.602335182796550282e-04,2.882821275292388939e-05,4.268813673982578072e-04,2.363309515557483222e-04,-3.048653175688241249e-05,6.103284106770031617e-05,1.896487548222218413e-04,1.393985413814075817e-04,4.844670293102595773e-05,-9.470862582701376222e-05,3.501576312533155177e-05,-7.975950626196813141e-05,6.812636727832610539e-04,2.327527331922334044e-04,2.234854245120126656e-04,1.986933978675743120e-04,-7.578532678884105744e-05,-1.582288232624750950e-04,1.620098068423270134e-04,3.229938221679983304e-04,-1.254628443600456535e-04,-9.340180558741507661e-05,-6.858421265708729070e-04,1.173451135397221074e-04,-8.404777133500513820e-06,-1.598675317281696661e-04,1.639168399511192178e-04,-3.269903545789747275e-04,-1.110222648405213077e-04,-1.947669730144863641e-04,-2.368080945106282867e-05,8.419062569653290736e-05,2.728498998551557512e-04,-1.038305991231489468e-04,2.187992276455448201e-04,3.550174338930392340e-04,1.492791357697571093e-04,3.039877073602414818e-04,1.753199611979510189e-04,1.689770773523620426e-04,4.302644688201202839e-04,1.334673231437115653e-04,-4.306210154704123141e-05,-2.066178373618692194e-04,-3.403332548192129401e-04,2.117189843822222281e-04,6.010328718000983135e-05,-1.824999937561479300e-04,-4.326865969394722423e-04,-1.405588200494709743e-04,-2.383911054720516535e-04,-4.623782070579647379e-04,1.058917752577881109e-05,-2.048107794412036228e-04,-5.074544268394268784e-07,3.496663428609951790e-04,1.913411126967838269e-04,-2.405917703237782498e-04,-1.868739984308158593e-04,-5.761024291259054045e-05,3.211326478046121728e-05,1.759381009608770776e-04,-5.369136347294150110e-05,-8.888891165286996534e-06,3.022291399635998168e-06,2.417839584301915740e-04,2.884451810115660000e-04,9.393870714955025486e-05,2.682996375543703549e-04,2.683067154006867926e-05,3.344540770340750214e-05,-1.309293484319563894e-04,-1.646245173210167953e-04,-4.789568332518043064e-05,-2.994173536982914227e-04,-3.325399050940817903e-04,-1.776726235819192580e-04,-7.306399430112070405e-04,1.428938557865986789e-04,4.564520136330151538e-05,1.592064881001224470e-04,-2.563647751438187885e-04,-3.415942451911839484e-04,6.440574567069768872e-04,5.126256314380888334e-04,-1.641035227776866431e-04,-3.687943812187666572e-04,-2.092126336033735593e-04,-3.674380547321339603e-04,-2.063541702040932340e-04,-2.481335090799457240e-04,-2.066336304040342162e-04,-3.426779556512696924e-05,2.518111993864711518e-04,3.562814082300040674e-04,-2.209824941698569373e-04,3.884051044471471581e-05,1.183969899635327084e-04,5.404694822040952352e-05,3.145687058678598910e-05,-1.691446130769944773e-04,-9.415250398398101572e-05,-2.789884416063171941e-04,-2.551427301113705359e-04,-4.165844349945147548e-04,-3.266507129715171638e-04,-1.541190613947143241e-04,1.504467043796065008e-05,6.336952574890939674e-05,-5.966331565079364442e-04,-3.103068554834887837e-04,-1.014853069317909454e-04,-4.609059108402996201e-05,-2.775027405232487329e-04,-6.778642327364699042e-07,3.559166988689843294e-05,-8.575543519246272260e-05,-1.366399726121909108e-05,4.113824862051407364e-05,2.264842753619630714e-04,2.708384679539362050e-04,1.840072853181831712e-04,1.460682438356376736e-04,-8.177959201323390412e-05,1.896860522072676969e-04,4.387075238224838014e-05,-2.746156002575599921e-04,-3.393223290649883536e-05,1.188619166807260900e-04,-2.443760022389499984e-04,-1.788231525678642044e-04,-9.450860775578888873e-05,7.397100987673162155e-05,-1.510438586665644031e-04,-2.880602524584450623e-05,1.548900229989227017e-04,-6.106083987290863481e-05,-1.120253852692471410e-04,-8.267578302781368102e-05,4.517447697470113467e-05,-1.553600163987143938e-04,-1.050940348265446366e-04,-2.528037170996979936e-04,-4.748751912389290262e-04,-3.048625176927128992e-04,1.315000058505705888e-05,8.192416828805585088e-05,1.008714448175099102e-04,2.179817948973211892e-05,6.216878125380713240e-06,3.610244772287744675e-06,1.145610660828359838e-04,2.169885879231071336e-04,9.679843059102078307e-05,-1.638405731988748157e-04,-1.448053680370793486e-04,1.045626550323292193e-04,3.376789450926271253e-05,-1.464478127209923545e-04,3.680208645885513501e-04,-2.058680745692571562e-04,2.053802079510611987e-04,1.457505091188753053e-04,1.951109984465652198e-04,2.017712337496437762e-04,-1.443545375726814587e-04,2.456219404408012006e-04,1.865617622852355762e-04,-2.077107067894212082e-04,-5.466576166918952302e-04,-4.257726971514228420e-04,7.707377182043530421e-06,1.559525770854077267e-04,1.666869385937246837e-05,3.461899544766962496e-04,1.026293213890337158e-05,4.802655976091322752e-04,-1.558305259976467555e-04,-3.285649772024071892e-05,6.449123132693997411e-05,3.248086751692710346e-05,-3.445708703220987210e-04,1.225132483727815540e-04,3.186852664816359408e-04,-1.513794832597387737e-04,7.169618339780060748e-05,3.770855214576934440e-05,1.096922208012881617e-04,1.598893965067626989e-04,5.043457112226449159e-04,4.582681414551551089e-04,1.146362879948830191e-04,-1.304861977812853921e-05,-2.188874751108808067e-04,-2.331165698436868405e-04,1.701494615454398880e-04,1.771318044388814426e-04,-1.151948165368848819e-04,3.487792674830180237e-05,6.501606778419998108e-05,-1.372036702370596397e-04,-7.797067364241642626e-05,-4.417920666115980204e-05,2.923764036084925143e-05,-1.124823621198427632e-04,2.782737676118133565e-04,3.513217392753923470e-04,1.172723553626674961e-05,4.788557435977707421e-04,-1.211939782633436320e-06,-2.528472751270405077e-04,-1.101471408236009367e-04,-3.541765919203051344e-04,-4.140120138681524552e-04,4.468291333142663922e-05,1.987451905429023745e-05,-1.682300358897869177e-04,-1.873984517887393648e-04,-2.750382317911751395e-04,6.660509871605449928e-05,2.059431972931388742e-04,3.056082833783532998e-04,-2.173090896808510454e-04,1.954261572811009939e-04,2.787781774545272889e-04,-1.332668640886910288e-04,-4.870732658144492585e-04,-5.177048618359090778e-04,-3.079882260130413778e-04,-3.707565012191925326e-04,-1.102149054056313944e-04,1.754422197429980677e-04,4.721366255636064570e-04,4.022143833289834863e-04,3.520683686124339564e-04,1.546968973416700563e-04,9.462219485410025175e-05,2.272138944082768874e-04,-9.651927567836121743e-05,-3.243647553634251292e-04,-3.849588237004810559e-04,-2.153057753998861715e-04,1.694243008900750858e-04,3.240448468811723431e-04,5.444515415839930881e-04,2.926762871687747227e-04,2.356299994597888057e-04,9.254491121978422532e-06,1.887699111967681932e-04,2.340527275618348635e-04,-6.271356653653905699e-05,-1.001159625254658515e-04,-4.357715675253834037e-04,-8.192569364293025673e-05,-8.896639982848943747e-05,1.786715110470630499e-04,9.824878934315404337e-05,-1.070012188466915834e-04,1.323042414754381144e-04,5.711857484838943442e-05,-1.900307541460302869e-04,-3.502145825969587992e-04,-1.045151737906375593e-04,-6.084038669019661421e-05,-2.086568573337481728e-04,-2.656857861094001107e-04,9.260255315739268557e-05,-4.282289379094939870e-05,-3.329988119327039983e-04,2.976681016793789026e-05,-2.618656781574465542e-04,-7.908865123218513412e-05,-7.493679871592296544e-05,-9.968504016920316053e-05,1.074514571409810702e-05,-2.705535729829714364e-04,-2.086204091155797026e-04,-3.154773202195044926e-04,-2.168234543690056033e-04,-1.919035560431798658e-04,1.446260314959376607e-04,1.627207475590713547e-04,2.097265721834467591e-04,-2.497949513286784455e-04,-3.878910949693164991e-04,-2.582200674433083481e-04,-7.693001070417473974e-05,2.074343174098150857e-04,1.158010900997357215e-04,-2.591300412550299648e-05,-3.022158229239469145e-04,-2.802730364850481012e-04,-3.280003915851120505e-04,-5.601128608096838621e-05,-1.288527971378391546e-04,5.545362973184743020e-05,-2.295368785331187501e-05,1.016695600289154250e-05,-2.569746410855789200e-04,2.114097565467977513e-04,-2.375430131388428230e-04,-1.166998243626167454e-04,-2.039541324304959102e-04,-2.173746984064209352e-04,1.024898008109255616e-04,6.984547706402982029e-05,1.289424485335573549e-04,-3.099673819206650921e-04,-1.894353060178968729e-04,2.223025719690490418e-04,1.739888227261305242e-04,1.394393453773073110e-04,4.316253032084069245e-05,-3.655143335757023767e-04,-1.801361444718097709e-04,-1.245007388943906231e-04,-1.243100581628572420e-04,-2.633322257689069525e-04,-1.607738118028584297e-04,-4.572606674478712872e-05,1.633631628254383818e-04,1.081693120057867808e-04,8.872004121382125988e-05,-9.384477625032082199e-05,6.822114838314371316e-05,-1.654121006971541821e-04,7.090495817593765195e-05,-4.424850841369728671e-06,3.320343795203056845e-04,1.631429804005244809e-04,4.150908350642081696e-04,-1.674820860137950110e-04,-3.561602913326614508e-04,4.169967574465018587e-05,-1.402080793214085283e-04,-5.644866881034389091e-05,9.005467075893834421e-05,-1.179506794855746387e-05,-6.697199411688164821e-05,4.455454983541440886e-05,-8.443023173964727735e-05,-1.112495980314166391e-05,-3.085528709521992191e-04,1.359260618685396689e-04,6.151630312802842764e-05,-7.711461318588506400e-05,-5.453684504759003872e-06,-8.654841384612419798e-05,1.970848352134380553e-04,2.963206948898977210e-04,3.423950526935941210e-04,4.237874593351619880e-04,6.497829061644934921e-05,-7.188720587682227486e-05,2.924462814944882262e-04,1.312664342183863988e-04,-2.187877200493292072e-04,-1.130932753433422795e-04,1.156030581324901657e-04,-1.335698207472317827e-04,-2.301890716576126248e-04,-1.854786674077215248e-04,-4.779877650097773983e-04,3.267174809215941971e-05,2.881740074938490023e-04,2.406945845660517973e-04,6.821610159021437544e-05,-2.392819682328352316e-04,-1.352209270479994517e-04,1.409933150007787537e-04,-1.169519050771655836e-04,2.675802654442235233e-04,1.817814770249304070e-04,5.970617352045129054e-05,1.521978980898020329e-05,1.463893878362219024e-04,1.372795333408906554e-05,2.900442366131971241e-04,1.319229163614250291e-04,3.190979151510951067e-04,-2.295347437013664017e-04,-1.623562819148008862e-04,1.164400112569764198e-04,-7.575096458083825105e-06,8.043916626462326819e-06,-1.872657474864354230e-04,-5.895576490231591840e-05,2.154302515353540579e-04,1.839113995804435298e-04,1.954711423341379511e-04,6.898093598798226333e-05,-1.968859638493809469e-04,-1.104088798787203975e-04,-8.800877063734986120e-05,5.664870014611303966e-05,-8.133375080766097240e-05,3.874806442691687731e-04,3.608537461294845949e-04,2.662611272548568841e-04,-2.048085659133835998e-04,-2.268432037897959207e-04,8.239970425036159478e-05,3.325630591880450026e-04,3.013362620911434146e-04,4.387909026182305839e-04,5.635155694138676343e-05,3.991956986763176224e-04,8.710437686359654786e-05,-9.543881243422124678e-05,-4.590838670991007953e-04,-1.726439384082772933e-04,1.880817556933655132e-04,4.363003276677345323e-05,4.516152730935904985e-05,-2.574296494885326084e-04,1.368387111715155507e-04,2.913461451583504534e-04,1.224567881414028163e-04,-1.323267249159018491e-04,2.245842027394981801e-05,-2.121050016802054027e-04,1.355833207401321730e-04,2.630356583038885246e-05,-2.637931646171973827e-04,-1.099681901414691029e-05,2.116909805147694761e-04,1.076791150064424765e-04,2.172398328580238850e-05,-1.489659761454455969e-04,-3.011207846266967213e-04,5.723429196803731336e-05,3.096085477514992087e-05,3.051346430840091496e-04,4.148056833222099290e-04,1.522293887905079080e-04,3.271520542595927374e-04,3.382327056428749120e-04,-7.218376035615153223e-05,-1.569350935243658785e-04,-1.840814955266593933e-04,-1.383945982386053180e-04,2.184275568467451884e-04,5.936729060353228212e-05,-6.819737847439017212e-05,1.592061858509195946e-04,1.592540538621741917e-04,8.449464801157329614e-05,4.123276371790493078e-05,-1.534056461239917250e-04,-1.781456652849040399e-04,-4.064114404096157000e-04,-5.307934585511103433e-05,5.098332663791687187e-05,-1.023831765830657004e-04,-4.418952305982570524e-04,8.069463329400393165e-05,-1.618043483531924134e-04,-1.387908559768570364e-05,-1.637798398973149103e-04,2.959622849863664722e-05,-5.390114660366013792e-05,4.246385415189644040e-04,-6.515423864444636049e-05,9.639775810116790657e-05,-3.135119645708746576e-04,3.314775524576893482e-04,1.982651042007142598e-04,-9.173275894300999514e-05,2.202727382211366533e-04,-2.621431922937957079e-05,-3.168714334229749555e-04,-1.453001370689037885e-04,-1.130017808467441003e-04,-5.735551186290362071e-05,1.314976169848410166e-04,1.268675320046489289e-04,-7.540865849546898869e-05,4.783499615615554095e-06,-1.842688215739527819e-05,7.228389445160109561e-05,-1.943361254642035651e-04,1.490168270141145504e-04,2.580867630069601874e-05,-1.240338847596150285e-04,-1.448571110919084578e-04,-1.203384308318386823e-04,-1.156625527646827590e-04,-2.003287325482594624e-04,-1.198225746036155759e-04,2.422716319152137441e-04,2.483254501278712068e-04,3.385268614503576801e-04,1.029228833535301090e-04,1.584910220739585169e-04,2.107840524416271515e-04,2.975867406025167861e-05,1.133960254003076946e-04,-8.165405036051175537e-05,-6.606441605835539402e-05,-3.241134448542095183e-04,-3.336930627329954256e-04,8.995035179180715587e-05,-1.914076442483397269e-04,-3.756813066635856894e-04,-8.292439576532160473e-05,2.427669639964435424e-05,-2.965995553295101166e-04,1.266795647798842214e-04,-1.776661318764293624e-04,-4.892921324096302475e-04,-4.928402067049198138e-04,-5.892441303956371301e-05,2.551884203362894264e-04,2.411772208366741682e-04,5.146016061675115998e-05,-2.763758926305782677e-04,-9.388427202184767163e-05,-2.238049749676797987e-05,-8.997517742526659531e-05,-1.286620225783909348e-04,5.278833402381990521e-05,-3.040082769493928356e-05,3.230358712832931802e-05,-3.812188703793405490e-05,-1.548957371785766727e-04,5.842519550063812273e-05,6.473354762182480444e-05,4.000049895903772272e-04,2.265168554996596769e-05,-3.504498859562700627e-04,2.763391901906868332e-04,2.805769016774238523e-04,-2.993394467771936661e-04,-3.950815385592419828e-05,-1.485180383046747702e-04,2.752389362923992125e-04,1.851154377741747587e-04,4.322985281284175314e-04,2.492773470097642990e-04,4.668036432385982461e-05,-8.781072711791367772e-05,-1.707039270583164000e-05,-1.636561580495100095e-04,5.727183817904836553e-05,5.951657689818380296e-05,-3.060706298357146991e-04,-1.766567487645156380e-04,1.509778343189846961e-04,2.689602508003850971e-07,1.612740551996898317e-04,-1.122472054211194842e-04,-3.131100980210766772e-04,1.204270897672007570e-04,-1.472760396611732552e-05,2.196750157448998364e-04,8.956755330545043919e-05,-2.526136663503666580e-05,9.559050511078656914e-05,5.371769154391903755e-04,2.123223314154724624e-04,8.765903649025707329e-05,2.219435032414372364e-04,2.605582831650463506e-04,5.151275405073043765e-04,2.929224977360397604e-04,2.786059635895976735e-04,-8.656203057283856108e-05,-3.201274785200267374e-05,2.889626829034676911e-04,2.294441421195388554e-04,4.468887387594612601e-04,-7.248977574430932815e-05,5.353218639728559515e-05,6.905853313548750052e-05,2.286014117290770904e-04,2.338761670948581815e-04,-1.759467011934874887e-05,-9.801196481559766159e-05,-4.280076969249034719e-04,9.810000934316297487e-05,-1.090536099418803833e-04,-1.894570490475453210e-04,2.619063988890676193e-04,2.022440562538007139e-04,-4.609100888393799478e-05,1.867855212783440524e-04,-7.716578374924743791e-05,1.337657967453066297e-04,-5.173029387446862485e-05,1.719016324697869580e-04,2.200205545114582596e-04,1.838117741085394284e-04,7.010376460058026743e-05,1.839769906431899316e-04,3.560201392154754884e-04,1.294561561636886854e-04,1.189683589421451615e-04,1.213690603826026346e-05,2.392932461610341435e-05,2.263755129944908131e-04,3.892093538618395226e-04,1.231393842903197821e-04,1.025501464752482435e-04,-1.320096075018220301e-04,2.713479990816083196e-05,-1.686149093202741708e-04,2.608395103733484699e-04,1.742902802266402458e-04,1.350549884846935240e-04,8.751316933099979748e-05,4.952152344818774041e-04,-1.152408803693384659e-04,-6.484724517205260640e-05,1.798956004371514265e-04,1.956394295399168477e-04,-3.151027280993734829e-05,-1.046634864054975012e-04,1.041916122632426339e-04,3.277299273046546863e-04,-1.017359447733892430e-04,1.593083042040857903e-04,9.333452032831407029e-05,1.551527491500597844e-04,-4.769197462869011244e-05,-5.015284265845474981e-05,-1.609094615090505263e-04,3.917574739462176769e-04,1.954609567928934514e-04,-1.013932368718906016e-04,-8.947515167700355082e-05,-2.138939800243489929e-04,-1.083949605280680597e-04,2.095088440212695285e-04,-1.508893913435205013e-05,-1.278027611983585709e-04,1.485072871387907781e-04,1.764498418068959095e-04,1.793486718862025427e-05,2.697695132484397457e-05,2.755227397635818219e-04,4.894981892409076612e-04,1.286421814620649035e-04,1.024486624103865370e-06,8.594798573369681171e-05,1.573060248587851569e-04,8.204524441539026193e-05,5.616285149048931205e-05,3.237745898645672730e-04,2.831382062113119136e-04,4.112741298848213698e-04,9.625952639936999019e-05,1.257641110845245244e-04,1.545216486496203375e-04,1.665405603235344120e-04,1.317311977829506377e-04,-3.572413069964170068e-05,3.380409236059091563e-04,1.165816409689473800e-04,1.085778126453973593e-04,3.122376355699832385e-04,-1.322573918520920249e-04,-3.422883914116768870e-04,-1.376784285771877824e-04,1.814564987280443281e-04,-1.465887215114007452e-05,-7.398873364250924817e-05,7.628481949532599953e-05,2.467790816807153903e-04,2.831825464882857632e-05,-5.426868719590265632e-05,-2.077139734436407668e-04,-8.697068773801477394e-05,-7.451007284065462664e-05,7.735112727021010277e-05,1.087557683757273141e-04,2.738290429675969929e-04,3.655281492278046477e-04,4.186031650103720013e-05,-2.354375655643876917e-06,9.566569433374414561e-05,2.029103888536738906e-04,3.546331977041384110e-04,-4.746821473484978167e-05,9.561499687598713640e-05,-1.535574555366275645e-04,-1.063835626252373210e-04,6.631929408523751235e-05,1.735228809256068443e-05,-2.271969599475146646e-05,3.964975287910786823e-04,-1.738483247511495760e-04,-4.800349295124414279e-05,-4.213357098103338047e-05,-1.104801655137741131e-04,-1.635180424694156884e-05,-4.554815899282426339e-04,-2.400569726181915186e-04,2.385543052952664503e-04,3.295304112471887799e-04,1.389732501074244077e-04,2.142756617463448319e-04,2.141836915972742468e-04,4.302108908949453699e-05,2.104755709764286335e-04,-4.082138050786663063e-05,-1.907292990765924808e-04,0.000000000000000000e+00,2.759349646483340085e-04,3.119862155425555286e-04,5.561525642232167157e-05,3.235601288461746952e-04,-6.775800255266484364e-06,-2.215198116519421264e-04,-1.715726325262976863e-04,-1.608793065340307726e-04,9.150339318794503338e-06,-7.803430866393744596e-05,2.158154178166700216e-04,-3.792356686024196281e-05,-1.120952803184122710e-05,-1.619764243631057268e-04,-3.770738048237305684e-04,-2.636678582912004628e-04,-5.712313830400792079e-04,1.849778978606356813e-04,2.718659633672824519e-05,1.599727942258383413e-04,3.511117562576649776e-04,1.791701886389440452e-04,6.970543455251804459e-05,-2.684700055672512866e-04,-1.999746572315226839e-04,-7.238406193491874504e-05,-3.571758930838658477e-05,0.000000000000000000e+00,-2.803512411207200968e-04,-2.555975259436038126e-04,4.234635837645951429e-05,-1.186746726656582506e-04,1.649036341089575792e-04,7.520603698968099653e-05,-3.416196829961874759e-04,-3.230064852178969256e-04,7.614721695114661057e-05,-3.718303434324433953e-05,-4.082794058623957193e-05,6.898051232276512410e-05,-1.147571107526739311e-04,-2.706114602278216472e-04,-2.222941916295507385e-04,-5.890433560834270856e-05,-2.118427025561698250e-04,5.108707118310106053e-05,-3.184208218308097081e-04,1.422600634918368152e-05,4.673909534245094090e-04,3.747655793254613490e-04,6.062277913863822699e-05,1.258295076848823786e-04,2.417301081498510789e-05,-9.318510550682195762e-05,9.196702709338330491e-05,1.861900099680915694e-04,0.000000000000000000e+00,0.000000000000000000e+00,1.748328138714958955e-04,2.823866374726513020e-04,-6.767077403690402427e-05,-3.129068941237545302e-04,-3.964151085102308623e-05,-1.493235729816333381e-04,-5.064106349662758459e-04,1.689119157971116908e-05,1.755096705898846906e-04,6.997590076180145835e-05,1.271766017421207347e-04,1.952819395189073638e-04,9.321183524617144731e-05,-1.889324738413168507e-04,-2.894507006636981919e-04,-1.225143337537168561e-04,-5.595638674138339526e-05,-2.072168071435713226e-05,-2.754794469768206511e-04,4.511021459259729300e-05,9.887897844775990464e-05,7.258665108706879355e-05,-4.258097881460422740e-05,-1.524620385582937021e-04,-1.485781540024799438e-04,-2.305047579247511999e-04,-2.692793634109977275e-04,-5.822853365309892999e-05,1.031712594667821175e-04,1.504239623266067272e-04,2.135053872211847056e-04,4.384934318961678006e-05,2.053454895232647380e-05,-1.146366943660737992e-04,6.307868004176523118e-05,-4.494345849691213534e-05,-3.324104040350047231e-04,-4.650472977701920838e-04,2.454881563172728109e-05,-1.931919613810451129e-04,1.504339049021430189e-04,7.426040257728724501e-05,-1.775471305121260489e-04,4.382950483201517033e-05,-1.739085706689580142e-04,6.414859899352812786e-05,-3.507391542407970050e-05,-2.255878013008082858e-05,-6.666361194028785438e-06,6.246071465274059906e-05,-3.077655269615558716e-04,-9.556524545873101547e-06,7.937290381580709307e-05,-2.601527985275548828e-04,-5.700033852423438008e-04,-8.623668168939000074e-05,-4.436431585433109744e-05,3.964633093368328978e-04,1.474083447991474810e-04,-3.457534763470299847e-04,2.381409829625376665e-04,4.499623074848108735e-05,-2.762004472055316581e-04,1.237537714421767059e-04,7.432321886644733145e-05,-1.369920745542616686e-04,-1.471646485229428155e-04,-3.398817251659484425e-04,-5.009453768941089758e-05,3.708857880361013094e-05,3.673835907063428922e-05,1.061778376176418016e-04,-1.745808462718461643e-04,3.332216858883466884e-04,4.287566342374704000e-06,2.754417293192983955e-05,7.372023975096027423e-05,-3.571618520626428182e-04,-2.906654577702709723e-04,1.976438672768309228e-04,-5.337709999790715872e-05,-2.520872053246052597e-05,4.643194230433871431e-05,-5.482774763156433730e-06,-3.814018012147637272e-05,-4.895103768713355381e-04,5.607695060650574648e-05,-1.780240601012191218e-05,-1.527025100734791978e-04,-5.910469026365491153e-05,-3.700428084813126375e-05,2.608123162571137276e-04,1.331240882840843427e-04,3.590391204865441249e-05,6.880077748941129071e-05,2.541655104602784203e-04,-9.539195312677700234e-05,1.252086509958086086e-04,9.677059548569883374e-05,2.141229415829151738e-04,-2.230982806146738291e-04,-2.870600626283456038e-04,-1.980275877028347281e-04,-3.497300679434282009e-04,-1.393327049038503378e-04,3.692519063592061314e-04,-2.394468697265248326e-04,-1.302728620509236075e-04,-1.613650503899092972e-04,-1.973350902225852964e-04,8.043027387752314588e-05,-3.052884889065740338e-05,-1.844233292081100652e-04,2.625314220312252719e-04,3.307393362585867090e-04,-1.131549392700874292e-04,-1.382826469917100868e-04,-2.150515647459957751e-04,1.532749897869168594e-05,-3.997119221040897215e-04,-1.917832890890340053e-05,5.979047431024843992e-04,9.619609196265129197e-05,1.717574095097511983e-04,2.317990590140635548e-04,1.485428661168782655e-04,-3.707652095184933261e-04,1.384953373768462218e-04,1.399425368926136154e-04,1.319505055545759132e-04,-7.039047929369950508e-05,-4.898284674838178105e-04,-1.898939177994213756e-04,-1.714430582558388379e-04,-1.846796206501058924e-04,-2.839453682450031411e-04,-1.298812160259176526e-04,-1.848242396488765805e-04,-6.021125498355112387e-04,-4.663213597717594857e-04,9.305122480174189237e-05,6.952328238854725681e-05,1.884288781934939780e-04,1.721449509761475440e-04,1.458570258620255707e-04,2.602250342812330135e-04,1.712574083005833562e-04,-7.148486966056747250e-05,1.831054419383529948e-04,-1.724003131374497700e-04,6.027664094001432981e-05,-8.720168207829189877e-05,2.420164794545388235e-04,8.059303911710146372e-05,2.710997974710750843e-04,5.688610301816381408e-05,-2.293704940658393280e-04,-4.390615964973100586e-05,3.803856118316801117e-04,1.625513222378930896e-04,-1.921170801491589879e-04,-5.361536301244463698e-04,-7.737400304720508826e-05,8.727635199182598176e-05,-3.141071104923338084e-05,2.914145797843544633e-04,-6.436367086675397458e-05,5.509869500784954360e-05,2.286828037219028776e-04,-2.354337061209138500e-05,-3.468080137211672050e-04,-4.653551491159501165e-05,-2.257928137947657151e-05,-1.176151029618191019e-04,2.088362383546861988e-04,-4.242278426399232806e-04,3.520489790301567642e-05,1.505548548528775406e-04,-6.623161308012207653e-06,-2.068903311842728969e-04,2.108647348292107509e-04,-2.512882614009802991e-04,-8.740714850527323552e-05,-1.635320088880145976e-04,1.963761194380286997e-04,1.216305252658712640e-05,-2.637419274657082455e-04,2.322790300169624703e-04,2.293682440997234836e-04,2.565755337120336496e-04,-1.019039431956077405e-05,-6.414486036503168820e-05,7.777743693558686076e-06,-1.321971096124304281e-04,-7.498023426065817103e-05,-2.034492672268633010e-04,3.561049280646920901e-04,-1.732000560605282443e-04,-1.520782493722080129e-04,3.218329880676422221e-04,1.111191321700229369e-04,-2.237352664596137307e-04,-3.309731925834964359e-04,-9.298441066074061812e-05,-4.063228554743929070e-04,-1.108873123643320293e-04,2.054566390467669123e-04,-1.399119578528576714e-05,-1.819162491405386281e-05,-3.916874921729967944e-05,3.464415352451557725e-04,2.998660693386178333e-04,-7.105022753864826150e-05,-3.121682040403056849e-04,-8.237902163407176371e-05,-3.643279451272382011e-05,-2.266651012885682165e-04,1.900162562934961286e-04,3.619710602593241089e-05,-3.690878815116428929e-06,2.183436564576120173e-05,8.200031976082609473e-05,-2.017901549538615410e-04,-9.697988691558855968e-05,-1.289825998328534510e-04,-4.895275895892511366e-04,1.286036883059464477e-04,-3.257517039075663416e-04,-1.767183972254583616e-04,-2.877943339444622280e-05,-3.455298160798571383e-04,-6.610194739653231467e-04,-3.109035317465679081e-04,-1.021164151050146481e-04,1.471822667295458003e-04,-1.337801566096699581e-04,2.116784279684472291e-05,2.818154411620773397e-04,1.589389535828043148e-04,1.934331383309370806e-04,3.132186720761465613e-04,-4.710728153901589082e-06,2.167887131415442562e-04,6.663424554775377370e-05,-9.922391413961317668e-05,-2.533909780017852271e-04,-2.165243918915215964e-04,9.166486148040092665e-05,1.059444198088797714e-04,9.094599756772843208e-05,4.881572069567740976e-06,-2.752711287692113728e-05,-1.717366842525773387e-04,-1.877079272110537150e-04,-8.791361771564961043e-05,-1.600495208162002511e-04,-5.645427190335214747e-05,-1.316875205917469177e-04,-3.164606609831774553e-05,2.418517794044764909e-04,2.160734373944826422e-04,-2.466244268714223539e-04,-6.002495410728077117e-05,1.099602260391032175e-04,-3.654786178786388509e-04,-3.807155372086661721e-04,2.219458976880304133e-04,3.627494977678870683e-04,4.879159763936803239e-04,2.147383735889816527e-04,-5.665920430995429765e-05,3.074559868557218589e-04,3.871681648857515541e-04,-2.679811962749330278e-04,1.320996483467620167e-04,2.972639861983212249e-04,9.098776286840522080e-05,1.952472400033223741e-04,1.901650864649021390e-04,5.549760751888271497e-05,3.354503677801164152e-04,-3.261324418484857785e-04,-4.623470029719755270e-04,6.621723367102342814e-05,-2.781861988686421444e-05,1.154711732349738304e-04,2.168471333686259499e-04,-1.038985699309453607e-04,2.891435488339749640e-04,-4.513362778455555128e-05,-1.075145435884467240e-05,1.845254814365400068e-05,9.798873846260199307e-07,-5.343775420796462633e-05,-8.622229745339545371e-05,6.895146714883531875e-05,1.143762198747682039e-04,3.016541953613214081e-04,5.641808019217417480e-04,1.633843016509483942e-04,-1.092625284762106265e-04,1.919017468156270173e-04,3.745902442031612766e-04,-3.801289098599256730e-05,1.024716586410827427e-05,3.010642865235813124e-04,-6.498098659594630166e-05,-1.272890029101368876e-04,-3.389677624153822604e-04,-2.899439909580021511e-04,1.191911700086531424e-04,1.542388149895521118e-05,4.624453171294651255e-05,-5.924563162464355134e-05,1.918911539314454673e-04,3.572245258358521360e-04,9.597156059888390333e-06,1.326232411871418261e-04,4.660712820364277175e-04,-7.161530431655215305e-05,1.859513377250930990e-04,1.042941211774519038e-04,2.040421760779026472e-04,6.816505194134980328e-05,8.777009442766355919e-05,-1.425256832291219955e-04,-1.166559795380294108e-04,-1.587195639277141869e-04,-6.624184154121060941e-05,-2.408554162499844018e-04,-1.310989194133989138e-04,-1.005093126993614091e-04,2.398503452920154483e-05,-5.685938050855263035e-05,-2.211709029525927130e-04,-2.042954963282060072e-05,1.932373104695004435e-04,-3.104691526411670113e-05,2.458256529707636735e-05,-5.202648392261789928e-05,2.582038003630982600e-04,4.934769846028666486e-05,-6.732664932084773967e-05,-4.388424480981441892e-06,-2.754642244956760676e-04,-5.051081249991164614e-05,1.479428081611587089e-04,-3.485196159203029478e-05,-1.348984172232962442e-04,1.188114065574855918e-04,-3.422935780579836117e-04,-3.081815818307595523e-04,-1.107362223472099441e-04,1.491661014835469362e-04,-2.529044254219997822e-05,-1.456925652965880232e-04,-5.435275116251672695e-05,-2.709782990766511465e-04,2.739450276280532473e-05,1.744041048765949768e-04,1.400980104310881622e-04,3.656680010612137351e-05,4.657373516517425861e-04,3.466986088902494116e-04,-1.530959668796416282e-04,1.770317747450229096e-05,-1.330957309951900100e-04,-2.314680390228931529e-04,-3.669804348697877357e-04,1.030163396215873644e-05,-2.326919762908301060e-05,-3.923578038523053285e-04,-1.088173105997278071e-04,8.129616864754891762e-05,-2.650597838892804160e-04,1.024571612808200505e-04,3.247595334521004035e-04,-9.931063386388536683e-05,-5.341850183225673766e-04,4.021119769567388277e-05,9.945988007803059096e-05,3.218119685812316304e-04,1.669854023927878201e-04,5.705750513229251083e-04,5.126184582154262722e-04,4.356361275126588938e-04,1.590505594058366659e-04,3.286524045969060784e-04,6.609138800047430558e-06,-4.111182821169057132e-04,-1.629811969276725775e-04,1.427767683509085356e-04,9.474212959621503439e-05,3.062010320305174845e-04,8.784851115064323183e-05,3.320569745555464582e-04,3.481810378980728423e-04,3.452760378540753352e-04,3.824106457225826287e-04,2.353956757803935906e-04,-1.129806502124109779e-04,8.038722827993301679e-05,3.436883249749785204e-05,-2.225620908951561627e-04,-3.370246238513349615e-04,2.082075152562518300e-04,9.498305064934845618e-06,-1.195814588453811571e-04,1.051158212354789116e-04,-2.537002871165837501e-04,-1.584630925182798928e-04,2.378504267287138421e-04,4.937449779987581038e-04,1.676855272409207541e-04,1.750394438537701669e-05,3.666856102931911785e-06,1.766278273166877469e-05,7.132908022747380130e-05,-6.621215873145396111e-05,-5.691157143114922276e-05,-9.442117935740453473e-05,-8.026841775045316500e-05,-1.452918978659706209e-04,-6.874718312112568252e-05,-3.203958946192630129e-05,7.961293272702702579e-05,3.515004211031977550e-06,-7.228382604867181942e-05,-3.159684868314526136e-04,5.092266048733777372e-05,-1.297057291902530799e-04,3.446226876399660269e-05,3.388983486516876191e-04,-7.451392166058169915e-05,-2.977462646072025687e-04,4.802977455063055999e-05,7.786466601223743522e-07,1.101841321865803673e-04,-9.157938563045111364e-05,1.572600592702012097e-04,1.569314078423424911e-04,-1.266741318849681839e-04,1.187924329152532066e-05,-8.098724349839500646e-05,-6.712070263257825364e-05,2.308833037833699922e-04,4.736198059181956702e-04,1.069815725925272912e-04,8.630971670539929264e-06,-8.067260242743117145e-05,1.158693803378893413e-04,1.181500444085764243e-05,-3.132103261530633969e-04,-4.612995800225488192e-05,4.557558423082882522e-05,-1.008494977550807606e-04,-5.817036143679308615e-05,9.106068630708885969e-06,2.156886829365978295e-04,4.047424230912830727e-05,-1.379725776802642875e-04,8.403505348714843050e-05,-7.842212627819942019e-05,4.381665968290245281e-06,-2.107703481228509295e-04,-3.684316962173660496e-04,-4.180732902986002424e-04,1.053810220472621546e-04,-1.558105614790415792e-04,-2.041057563668174566e-04,-1.487406384989376027e-04,2.459150883018430505e-05,1.052671124758000431e-04,8.287345520264767463e-05,4.582566102739285308e-05,9.217126330421872879e-05,-1.516622236625191143e-04,5.608927397650910045e-05,-9.630245198694963157e-05,-2.177019538403204162e-04,-3.814324155426127602e-04,3.167263403479175495e-05,2.874883450992988783e-04,1.253862940112447752e-04,-1.205653787671389726e-04,2.418924904137352704e-05,1.392682799813219085e-04,1.438231769261422296e-04,-8.930294147686107780e-05,-2.990372360640391287e-04,1.060241855882616301e-05,-1.000447920106653945e-05,3.174435162363965308e-06,-4.617018837943181824e-05,-4.572566719844047673e-04,-5.937998626800516325e-04,2.310518817649807953e-04,-1.069604695204511871e-05,-5.359428748523399578e-04,-2.511847614723062704e-04,-1.741753975148810569e-04,-5.075084446095273023e-05,-2.135646516854668110e-04,1.368206329861227639e-05,-3.628473998743819966e-04,-2.721100871153659144e-04,5.914378835037346590e-06,1.876608905426572534e-06,1.752921902001889471e-04,-7.851810592477495587e-05,-4.348855583809456692e-05,2.903159058271037292e-04,2.628296114088138368e-04,-3.984955958746869533e-04,-3.582221705747459513e-04,2.334063401973968384e-05,-5.376026697939318322e-05,-1.759463806539976471e-04,-1.721911277790569533e-04,4.292011615082895432e-05,-9.138554971631358663e-05,1.323249383625655631e-04,1.108219316157446599e-04,1.089814754523713133e-04,1.470645323852501699e-04,4.078068139918994021e-05,2.258665911663511642e-04,1.686171676312534168e-04,-5.869134052173565225e-06,6.791150878045452836e-05,-6.036677341037855106e-05,1.665615838574812356e-04,2.120698198609505378e-04,3.008710545813650080e-04,9.297908839816298120e-05,-4.695614187573135057e-04,-2.775840576973499264e-04,1.664162278706787204e-04,7.873969351321132861e-05,-1.893056566136517606e-04,-1.386621264047458097e-04,6.537748734620155578e-05,3.117679261363380961e-04,2.133455014935407433e-04,1.669248023142639518e-04,2.274062252659911473e-04,2.649286262411081733e-04,2.466041817833567652e-05,2.483189742534233006e-04,9.033753666399748803e-05,-1.257358348377081339e-04,1.058645135020280911e-04,-6.456904799926092235e-05,2.969707924252288668e-04,5.596251918674202360e-05,1.120102632780517238e-04,3.738105406138551965e-04,-1.680941616064941444e-04,-1.259659989896367996e-04,-2.937912123767642933e-04,5.669576997061202058e-05,2.101158259626672155e-04,-5.042046065785942780e-05,-2.594116850853472032e-04,-1.224564623547891198e-04,2.014864942891944697e-04,2.834358747668748891e-04,1.122917727589146236e-04,-1.743250251080199337e-04,7.803102804821681053e-05,3.230890862469409409e-04,-1.112768195641346259e-04,-2.629313089093719799e-04,8.381102760294251576e-06,-4.757494753298012642e-05,-7.080399944711657234e-05,2.404971566954571178e-04,4.124951532429406626e-04,-1.312210868058914098e-04,-3.952368455916485494e-04,1.540306520911983274e-04,8.217699712506955909e-05,-3.853230810620187751e-05,2.510655516830636214e-04,6.538318109837775642e-05,4.556640811475019598e-05,-1.638901640686879209e-04,-7.557122632744112144e-05,-1.487554903463631139e-05,-5.954331799487378932e-05,2.809397575652415645e-04,-1.579572831763823189e-04,-2.956097122834481605e-04,-7.960236069593567220e-05,-1.195021683301693922e-04,-5.349433282047702233e-05,-2.475641074726235504e-04,2.654345949959809178e-04,6.461092221614307077e-05,1.887157398646770905e-04,5.726666420834890204e-06,-1.420902541158733259e-04,-1.766406564152821451e-04,-3.481939568583041302e-04,1.401745916568176585e-04,5.383294751922771716e-04,4.645457384169518434e-04,1.697681105211495424e-04,1.848040215259789173e-04,-3.925369292069980998e-04,-5.403946737874906758e-05,-2.130484591210060489e-04,-2.575556595449908026e-04,2.971193313079355529e-04,3.726306271291024885e-04,1.111709604938112438e-05,-1.681712339809037708e-04,2.614255221431084522e-04,1.599795253389121907e-04,2.626883301345320939e-05,4.814653090334736961e-05,-2.791277032798710790e-04,-3.639338857510212894e-04,1.360117895693963885e-05,-1.553197700419968637e-04,-1.856945816218686697e-04,4.074468527744307166e-04,7.266889847534494309e-04,9.313998057059774585e-05,1.761935022618125969e-04,1.217692208767013479e-04,-7.769165655919267274e-05,7.360554528423848190e-05,1.690322942025887339e-05,1.733076908587273079e-04,4.095383243609100740e-04,5.208851255979279025e-04,3.219784017324479257e-04,-2.104762714899601725e-06,-2.433673628226793199e-04,-4.046767632373468853e-04,-3.508265646524064748e-04,-2.017295281734673572e-04,6.319038116015030014e-05,1.160067555722230743e-04,2.149734028269898129e-04,-2.048867749367242906e-04,1.890140540042988795e-04,-1.925537374061301674e-05,2.832061579930450100e-04,2.057082610803640706e-05,-2.454417437280018697e-04,2.997804997856246353e-05,-3.820396522137946694e-05,2.240918986464986927e-05,-4.244208322641483374e-04,-8.998210549522307842e-05,4.469791075757480235e-04,6.309018031399670845e-04,-2.663306941412635129e-06,2.522193694377630882e-05,-3.542241846996341427e-05,-7.876257009480135216e-06,5.483410455481538449e-05,6.064069707736374282e-05,-1.127703698256526927e-04,-1.573487707953715115e-04,2.688987285147528090e-04,-8.215189456593184885e-05,1.615537933558674544e-04,1.196601927810205066e-04,-3.666181840323099860e-04,-3.419267956318504343e-04,-2.191794047961092401e-04,-1.975719267939360390e-04,-1.405906235500178339e-04,2.801013771421041477e-05,2.447040800049956233e-04,-3.374416611763705540e-04,-9.654858791684148300e-05,-8.514792986288423143e-05,-2.001391222880258454e-04,2.195915085871385142e-04,-9.039284806738541228e-05,-3.221371372822420614e-04,2.935403997965859856e-04,1.729088824311869512e-04,3.957918456833092345e-05,-3.983674907757101132e-04,1.774296461781989730e-04,-1.053992741056101155e-04,1.673125549099422965e-04,3.881194190698318710e-04,1.853930919692883372e-04,-2.340620441803125350e-04,9.420247480862785708e-05,-3.490576725789371943e-05,-8.705087872274746761e-05,-9.244943302229282278e-05,3.865845487347817826e-06,3.627699163387852960e-05,1.326158271809551609e-05,-1.568780805779547476e-05,-1.553326567961147515e-04,-1.323611863335159746e-04,-2.951927325547653311e-04,-1.271887285730696890e-04,-5.541756468539149269e-05,1.896776796512535373e-04,1.958548434825275021e-04,-4.467545410319554008e-04,8.957231505669813979e-05,-2.218776151086776331e-04,-3.976461534021032292e-04,-4.154218919500425041e-05,-1.558974099543552951e-04,-2.335286140647742262e-04,8.535424388301061178e-05,2.208530128029900536e-04,1.485871676661129463e-04,-1.598688002247408496e-04,1.113338365420623867e-04,7.334704686096458614e-05,-1.285900275247485805e-04,-2.066755062558238518e-04,-8.038379685186405400e-05,2.385612064603556291e-04,1.469455011433508265e-04,-2.700966059917025617e-04,-3.078999009978233207e-04,4.043658510815518136e-05,-2.321871741176018383e-04,-2.329476846660163503e-04,2.710626038743850681e-05,-1.938016211470829434e-04,1.619214445491516511e-04,-4.423014261243947821e-05,-2.020923104628645798e-04,-1.860441292788811212e-04,2.449716630927857271e-04,6.781986810058919513e-04,5.356687554540929402e-04,-1.498913389393564043e-04,-2.297448206725429584e-04,-8.508639314258949237e-05,7.834810982219655973e-05,1.479954240888324329e-04,1.801647887323410411e-04,-2.385373190225116243e-04,2.708474514740948210e-04,1.314594519202497840e-05,-6.929138293402038772e-05,-4.714566417480421656e-04,-3.948116465375441629e-04,-5.686852617191314005e-05,1.481892369976764890e-04,-2.785430982486488739e-04,3.409246010979826856e-04,1.238489261336156769e-04,-4.037653596993494016e-04,-9.863799465289620444e-05,-2.654941020430681307e-04,-3.531950996047465924e-04,-2.421408728325088745e-05,9.315124370784494035e-06,-2.550774572825429787e-04,-1.631625669222885812e-04,-1.214468245813181863e-04,-3.644821180338259428e-04,1.206614171748697652e-04,1.129580883754812478e-04,5.081054971332662085e-04,2.133310811330205842e-04,-2.260487300787229151e-04,-1.788229959296607886e-06,-2.831520304574988841e-04,8.515659722943411591e-06,-1.715871388281444104e-04,1.893076734082133628e-05,-4.411691013467804726e-05,8.011932207093059429e-07,9.766023106273323399e-05,3.932339610423715454e-04,-2.939976854847683920e-04,-3.151889479862311186e-04,1.198799626483277594e-04,2.806874620490118488e-04,-1.877584804576375426e-04,5.251576421543462857e-05,3.419639929175631436e-04,2.395002588379291657e-04,1.516868568997031830e-04,-8.201987532562997384e-05,9.887217687378457821e-05,2.493239399532771300e-04,2.446639720966711697e-04,-7.397078836622721098e-05,-9.810966698814118292e-05,3.201449567237962313e-04,7.788011964653415535e-05,-1.281259108488647677e-04,1.126633075766764647e-04,3.128271142220600924e-04,5.943256401639179582e-06,-2.916518781633889879e-04,-1.879985097690811799e-04,-4.043081214213545609e-06,5.698273173205568252e-05,-6.829524721027733678e-05,2.637776897794793358e-04,-1.274018347886364666e-05,-2.274553406408584262e-04,2.225274635529747656e-04,3.430810587534468951e-04,1.746165925499867454e-06,-7.148326929975296843e-05,2.005711768749376305e-04,2.475529473382470235e-04,3.635386593509415767e-04,-3.098483804023704569e-05,1.550043825068493370e-04,1.560300402835717887e-04,2.140432017491925511e-05,-9.983281351171749901e-06,1.354752329080494927e-06,3.554279674468606974e-04,-2.030680501841701209e-04,-5.754056838875561884e-05,-7.243112097859843787e-06,4.247582766239401861e-04,3.414341259256467522e-04,-2.683350011954508681e-05,1.420882436552841396e-04,-1.503569893250680572e-04,1.792558154153074302e-05,-1.161768398606544318e-04,-2.531529495252996735e-04,1.441813143928902319e-05,-8.082159083189449471e-05,-2.341281308082931306e-04,1.526413381065300147e-04,4.236177985002654136e-04,-8.643741713847993933e-05,-2.177840592862210933e-06,2.426521069504418773e-04,3.991497664466266615e-04,2.659385956005921349e-04,-3.439688967488768940e-05,1.456367739723700666e-05,1.253598222323509890e-04,1.483688533205730696e-04,5.732196680837440221e-05,-9.068801407465701782e-05,9.418342056875621520e-05,1.141374891782256993e-04,-2.310147460060685319e-04,-1.106380285333351661e-04,5.601028564604483909e-04,-1.489636104365591059e-04,-1.170902553522247662e-05,3.514301810594378569e-05,5.701684086871581375e-05,-3.374309416381395866e-05,-1.144007904508745436e-04,2.505141427528609311e-04,-5.211667579428504811e-05,-2.922388683180669744e-04,2.774311914071461217e-04,3.579226502146870981e-04,9.983846748432074667e-05,6.182576946886152397e-05,3.695585565446339474e-05,1.852806681748233198e-04,-2.421374547667009300e-05,-1.248132575932059743e-04,-7.496089310932236498e-05,2.092307486704812964e-04,2.874487037813963229e-04,1.054260307684863949e-04,1.637576616562870423e-05,-2.517376176158852251e-04,2.587228064607361572e-04,-1.340198043313651824e-05,-2.560391774447640209e-04,6.749030960395182969e-05,